{"learner":{"attributes":{},"feature_names":["url_length","hostname_length","count_dots","count_hyphens","count_at","count_qmark","count_percent","is_ip","is_http","dir_depth","has_sus_words","is_shortened"],"feature_types":["int","int","int","int","int","int","int","int","int","int","int","int"],"gradient_booster":{"model":{"cats":{"enc":[],"feature_segments":[],"sorted_idx":[]},"gbtree_model_param":{"num_parallel_tree":"1","num_trees":"100"},"iteration_indptr":[0,1,2,3,4,5,6,7,8,9,10,11,12,13,14,15,16,17,18,19,20,21,22,23,24,25,26,27,28,29,30,31,32,33,34,35,36,37,38,39,40,41,42,43,44,45,46,47,48,49,50,51,52,53,54,55,56,57,58,59,60,61,62,63,64,65,66,67,68,69,70,71,72,73,74,75,76,77,78,79,80,81,82,83,84,85,86,87,88,89,90,91,92,93,94,95,96,97,98,99,100],"tree_info":[0,0,0,0,0,0,0,0,0,0,0,0,0,0,0,0,0,0,0,0,0,0,0,0,0,0,0,0,0,0,0,0,0,0,0,0,0,0,0,0,0,0,0,0,0,0,0,0,0,0,0,0,0,0,0,0,0,0,0,0,0,0,0,0,0,0,0,0,0,0,0,0,0,0,0,0,0,0,0,0,0,0,0,0,0,0,0,0,0,0,0,0,0,0,0,0,0,0,0,0],"trees":[{"base_weights":[-1.7983538E-8,-2.0912705E-1,3.3741328E-1,3.2756227E-1,-2.4290991E-1,-2.7641365E-1,2.0504391E0,1.1704856E-1,-4.4793648E-1,7.9967296E-1,2.606332E-1,2.6957173E-2,-1.6087363E-2,-4.9698785E-2,5.6737073E-2,3.3528972E-2,1.5198852E-1],"categories":[],"categories_nodes":[],"categories_segments":[],"categories_sizes":[],"default_left":[0,0,0,0,0,0,0,0,0,0,0,0,0,0,0,0,0],"id":0,"left_children":[1,3,-1,-1,5,7,9,11,13,15,-1,-1,-1,-1,-1,-1,-1],"loss_changes":[1.7219999E3,2.7132388E2,0E0,0E0,1.7550935E2,1.5155818E2,2.0792526E1,2.896701E1,7.8153046E1,3.3588314E0,0E0,0E0,0E0,0E0,0E0,0E0,0E0],"parents":[2147483647,0,0,1,1,4,4,5,5,6,6,7,7,8,8,9,9],"right_children":[2,4,-1,-1,6,8,10,12,14,16,-1,-1,-1,-1,-1,-1,-1],"split_conditions":[1E0,1E0,3.3741328E-1,3.2756227E-1,1.4E2,3.1E1,1E0,2E0,6E0,6E0,2.606332E-1,2.6957173E-2,-1.6087363E-2,-4.9698785E-2,5.6737073E-2,3.3528972E-2,1.5198852E-1],"split_indices":[10,9,0,0,0,0,5,9,9,9,0,0,0,0,0,0,0],"split_type":[0,0,0,0,0,0,0,0,0,0,0,0,0,0,0,0,0],"sum_hessian":[2.4383987E3,2.2969717E3,1.4142712E2,2.113279E1,2.2758389E3,2.2439365E3,3.1902384E1,6.813292E2,1.5626072E3,1.0566395E1,2.1335989E1,4.3992776E2,2.4140147E2,1.4910808E3,7.152636E1,7.315196E0,3.2511983E0],"tree_param":{"num_deleted":"0","num_feature":"12","num_nodes":"17","size_leaf_vector":"1"}},{"base_weights":[-1.5662502E-3,-1.904461E-1,2.672652E-1,2.6255682E-1,-2.2137454E-1,-2.5224942E-1,1.7179509E0,1.0471584E-1,-4.1177318E-1,7.150883E-1,2.1332097E0,2.3974912E-2,-1.4592406E-2,-5.305326E-2,-4.572907E-3,3.0176282E-2,1.3357203E-1,2.2236001E-1,9.4215445E-2],"categories":[],"categories_nodes":[],"categories_segments":[],"categories_sizes":[],"default_left":[0,0,0,0,0,0,0,0,0,0,0,0,0,0,0,0,0,0,0],"id":1,"left_children":[1,3,-1,-1,5,7,9,11,13,15,17,-1,-1,-1,-1,-1,-1,-1,-1],"loss_changes":[1.2307407E3,1.9879611E2,0E0,0E0,1.352779E2,1.263246E2,1.3225029E1,2.324358E1,6.661224E1,2.6433873E0,5.4738617E-1,0E0,0E0,0E0,0E0,0E0,0E0,0E0,0E0],"parents":[2147483647,0,0,1,1,4,4,5,5,6,6,7,7,8,8,9,9,10,10],"right_children":[2,4,-1,-1,6,8,10,12,14,16,18,-1,-1,-1,-1,-1,-1,-1,-1],"split_conditions":[1E0,1E0,2.672652E-1,2.6255682E-1,1.4E2,3.1E1,1E0,2E0,4E0,6E0,8E0,2.3974912E-2,-1.4592406E-2,-5.305326E-2,-4.572907E-3,3.0176282E-2,1.3357203E-1,2.2236001E-1,9.4215445E-2],"split_indices":[10,9,0,0,0,0,5,9,9,9,6,0,0,0,0,0,0,0,0],"split_type":[0,0,0,0,0,0,0,0,0,0,0,0,0,0,0,0,0,0,0],"sum_hessian":[2.4345918E3,2.2748481E3,1.5974358E2,2.3801987E1,2.2510461E3,2.2166265E3,3.441971E1,6.8473737E2,1.531889E3,1.0875963E1,2.3543743E1,4.4502292E2,2.3971448E2,1.156292E3,3.7559705E2,7.4203873E0,3.4555762E0,2.1077257E1,2.4664874E0],"tree_param":{"num_deleted":"0","num_feature":"12","num_nodes":"19","size_leaf_vector":"1"}},{"base_weights":[-2.0982316E-3,-1.7335394E-1,2.2599511E-1,2.232234E-1,-2.0165242E-1,-2.3225516E-1,1.3750548E0,9.37631E-2,-3.8192305E-1,4.019041E-1,1.8049052E0,2.1356814E-2,-1.3228624E-2,-3.9623745E-2,2.4368918E-1,-6.371186E-2,6.426188E-2,1.8864955E-1,7.415888E-2],"categories":[],"categories_nodes":[],"categories_segments":[],"categories_sizes":[],"default_left":[0,0,0,0,0,0,0,0,0,0,0,0,0,0,0,0,0,0,0],"id":2,"left_children":[1,3,-1,-1,5,7,9,11,13,15,17,-1,-1,-1,-1,-1,-1,-1,-1],"loss_changes":[9.388912E2,1.5382559E2,0E0,0E0,1.07812965E2,1.0671094E2,1.7078133E1,1.8678547E1,6.1431442E1,3.9925165E0,1.1372757E0,0E0,0E0,0E0,0E0,0E0,0E0,0E0,0E0],"parents":[2147483647,0,0,1,1,4,4,5,5,6,6,7,7,8,8,9,9,10,10],"right_children":[2,4,-1,-1,6,8,10,12,14,16,18,-1,-1,-1,-1,-1,-1,-1,-1],"split_conditions":[1E0,1E0,2.2599511E-1,2.232234E-1,1.33E2,3.1E1,1E0,2E0,1E0,1.4E2,8E0,2.1356814E-2,-1.3228624E-2,-3.9623745E-2,2.4368918E-1,-6.371186E-2,6.426188E-2,1.8864955E-1,7.415888E-2],"split_indices":[10,9,0,0,0,0,5,9,4,0,6,0,0,0,0,0,0,0,0],"split_type":[0,0,0,0,0,0,0,0,0,0,0,0,0,0,0,0,0,0,0],"sum_hessian":[2.421629E3,2.2520535E3,1.6957558E2,2.5278812E1,2.2267747E3,2.1852139E3,4.1560715E1,6.8766406E2,1.4975498E3,1.3326178E1,2.8234535E1,4.4949115E2,2.381729E2,1.4908385E3,6.711276E0,2.1968596E0,1.1129318E1,2.5503445E1,2.7310908E0],"tree_param":{"num_deleted":"0","num_feature":"12","num_nodes":"19","size_leaf_vector":"1"}},{"base_weights":[-2.108582E-3,-1.576854E-1,1.9852772E-1,1.966587E-1,-1.8355154E-1,-2.097001E-1,1.3087643E0,8.401653E-2,-3.469878E-1,5.706593E-1,1.6021737E0,1.9050477E-2,-1.1985658E-2,-3.9321594E-2,5.4743703E-2,2.0982059E-2,1.1193267E-1,9.1525055E-2,1.7424583E-1],"categories":[],"categories_nodes":[],"categories_segments":[],"categories_sizes":[],"default_left":[0,0,0,0,0,0,0,0,0,0,0,0,0,0,0,0,0,0,0],"id":3,"left_children":[1,3,-1,-1,5,7,9,11,13,15,17,-1,-1,-1,-1,-1,-1,-1,-1],"loss_changes":[7.4361285E2,1.2291472E2,0E0,0E0,8.629803E1,8.7426476E1,7.3369904E0,1.5028511E1,6.129422E1,2.218257E0,9.790802E-1,0E0,0E0,0E0,0E0,0E0,0E0,0E0,0E0],"parents":[2147483647,0,0,1,1,4,4,5,5,6,6,7,7,8,8,9,9,10,10],"right_children":[2,4,-1,-1,6,8,10,12,14,16,18,-1,-1,-1,-1,-1,-1,-1,-1],"split_conditions":[1E0,1E0,1.9852772E-1,1.966587E-1,1.4E2,3.1E1,1E0,2E0,6E0,6E0,1.69E2,1.9050477E-2,-1.1985658E-2,-3.9321594E-2,5.4743703E-2,2.0982059E-2,1.1193267E-1,9.1525055E-2,1.7424583E-1],"split_indices":[10,9,0,0,0,0,5,9,9,9,0,0,0,0,0,0,0,0,0],"split_type":[0,0,0,0,0,0,0,0,0,0,0,0,0,0,0,0,0,0,0],"sum_hessian":[2.403014E3,2.2294114E3,1.7360245E2,2.5917171E1,2.2034941E3,2.1663938E3,3.7100365E1,6.9018463E2,1.4762092E3,1.1390693E1,2.5709673E1,4.534181E2,2.3676651E2,1.4041942E3,7.2015E1,7.70549E0,3.6852024E0,5.636079E0,2.0073595E1],"tree_param":{"num_deleted":"0","num_feature":"12","num_nodes":"19","size_leaf_vector":"1"}},{"base_weights":[-1.8749959E-3,-1.433827E-1,1.7882308E-1,1.7743276E-1,-1.6700661E-1,-1.9298938E-1,1.0905504E0,7.532905E-2,-3.2148615E-1,3.145835E-1,1.4265925E0,1.7012892E-2,-1.0853841E-2,-4.341375E-2,1.4981428E-3,1.0177066E-1,-9.16416E-4,1.4965345E-1,5.5584904E-2],"categories":[],"categories_nodes":[],"categories_segments":[],"categories_sizes":[],"default_left":[0,0,0,0,0,0,0,0,0,0,0,0,0,0,0,0,0,0,0],"id":4,"left_children":[1,3,-1,-1,5,7,9,11,13,15,17,-1,-1,-1,-1,-1,-1,-1,-1],"loss_changes":[6.035249E2,1.0032566E2,0E0,0E0,7.150729E1,7.376214E1,1.1108238E1,1.210418E1,5.4827484E1,3.3501823E0,1.0344543E0,0E0,0E0,0E0,0E0,0E0,0E0,0E0,0E0],"parents":[2147483647,0,0,1,1,4,4,5,5,6,6,7,7,8,8,9,9,10,10],"right_children":[2,4,-1,-1,6,8,10,12,14,16,18,-1,-1,-1,-1,-1,-1,-1,-1],"split_conditions":[1E0,1E0,1.7882308E-1,1.7743276E-1,1.33E2,3.1E1,1E0,2E0,4E0,3E0,8E0,1.7012892E-2,-1.0853841E-2,-4.341375E-2,1.4981428E-3,1.0177066E-1,-9.16416E-4,1.4965345E-1,5.5584904E-2],"split_indices":[10,9,0,0,0,0,5,9,9,9,6,0,0,0,0,0,0,0,0],"split_type":[0,0,0,0,0,0,0,0,0,0,0,0,0,0,0,0,0,0,0],"sum_hessian":[2.380507E3,2.2069666E3,1.735406E2,2.5954563E1,2.181012E3,2.1376912E3,4.3320946E1,6.923616E2,1.4453295E3,1.3676406E1,2.964454E1,4.568763E2,2.3548523E2,1.0825837E3,3.6274576E2,3.636042E0,1.0040364E1,2.6775154E1,2.8693874E0],"tree_param":{"num_deleted":"0","num_feature":"12","num_nodes":"19","size_leaf_vector":"1"}},{"base_weights":[-1.5766681E-3,-1.3036628E-1,1.6393922E-1,1.6282724E-1,-1.519244E-1,-1.7951874E-1,8.45789E-1,6.757452E-2,-3.0129743E-1,6.8624592E-3,1.4094257E0,2.1645604E-2,-4.075443E-3,-4.0584385E-2,9.513317E-4,-3.670013E-2,8.6563386E-2,1.5115947E-1,7.037904E-2],"categories":[],"categories_nodes":[],"categories_segments":[],"categories_sizes":[],"default_left":[0,0,0,0,0,0,0,0,0,0,0,0,0,0,0,0,0,0,0],"id":5,"left_children":[1,3,-1,-1,5,7,9,11,13,15,17,-1,-1,-1,-1,-1,-1,-1,-1],"loss_changes":[4.9832837E2,8.313814E1,0E0,0E0,5.964084E1,6.3314728E1,2.7571045E1,1.1221886E1,4.579483E1,8.166077E0,1.4510574E0,0E0,0E0,0E0,0E0,0E0,0E0,0E0,0E0],"parents":[2147483647,0,0,1,1,4,4,5,5,6,6,7,7,8,8,9,9,10,10],"right_children":[2,4,-1,-1,6,8,10,12,14,16,18,-1,-1,-1,-1,-1,-1,-1,-1],"split_conditions":[1E0,1E0,1.6393922E-1,1.6282724E-1,1.21E2,3.1E1,1E0,2.3E1,4E0,6E0,1E0,2.1645604E-2,-4.075443E-3,-4.0584385E-2,9.513317E-4,-3.670013E-2,8.6563386E-2,1.5115947E-1,7.037904E-2],"split_indices":[10,9,0,0,0,0,5,0,9,9,6,0,0,0,0,0,0,0,0],"split_type":[0,0,0,0,0,0,0,0,0,0,0,0,0,0,0,0,0,0,0],"sum_hessian":[2.3559377E3,2.185344E3,1.7059372E2,2.5561901E1,2.159782E3,2.1024534E3,5.7328693E1,6.942469E2,1.4082064E3,2.344497E1,3.3883724E1,2.9197455E2,4.0227234E2,1.0535286E3,3.546779E2,1.6732964E1,6.712006E0,2.8600485E1,5.2832403E0],"tree_param":{"num_deleted":"0","num_feature":"12","num_nodes":"19","size_leaf_vector":"1"}},{"base_weights":[-1.2232114E-3,-1.1848163E-1,1.5225668E-1,1.5131944E-1,-1.3814239E-1,-1.4846745E-1,2.0800743E0,7.180497E-2,-2.4500316E-1,-3.8918692E-3,2.449616E-1,1.53589E-2,-1.015745E-2,-2.9929025E-2,4.2783912E-2],"categories":[],"categories_nodes":[],"categories_segments":[],"categories_sizes":[],"default_left":[0,0,0,0,0,0,0,0,0,0,0,0,0,0,0],"id":6,"left_children":[1,3,-1,-1,5,7,9,11,13,-1,-1,-1,-1,-1,-1],"loss_changes":[4.167021E2,6.967829E1,0E0,0E0,4.9336216E1,4.5345333E1,7.913677E0,9.236867E0,5.4272728E1,0E0,0E0,0E0,0E0,0E0,0E0],"parents":[2147483647,0,0,1,1,4,4,5,5,6,6,7,7,8,8],"right_children":[2,4,-1,-1,6,8,10,12,14,-1,-1,-1,-1,-1,-1],"split_conditions":[1E0,1E0,1.5225668E-1,1.5131944E-1,1E0,3E1,5.5E1,2E0,9.7E1,-3.8918692E-3,2.449616E-1,1.53589E-2,-1.015745E-2,-2.9929025E-2,4.2783912E-2],"split_indices":[10,9,0,0,4,0,0,9,0,0,0,0,0,0,0],"split_type":[0,0,0,0,0,0,0,0,0,0,0,0,0,0,0],"sum_hessian":[2.3301406E3,2.1645005E3,1.6564001E2,2.4866037E1,2.1396345E3,2.1306501E3,8.984392E0,6.493159E2,1.4813342E3,1.4670206E0,7.5173717E0,4.4127725E2,2.080387E2,1.3712523E3,1.1008186E2],"tree_param":{"num_deleted":"0","num_feature":"12","num_nodes":"15","size_leaf_vector":"1"}},{"base_weights":[-8.2728104E-4,-1.0753273E-1,1.428045E-1,1.4198555E-1,-1.2544121E-1,-1.4479348E-1,9.221144E-1,2.3719037E-2,-2.730346E-1,5.34632E-1,1.2177418E0,8.664473E-3,-8.822132E-2,-4.0248673E-2,3.1910427E-3,6.88899E-2,-9.253786E-2,1.266123E-1,4.917754E-2],"categories":[],"categories_nodes":[],"categories_segments":[],"categories_sizes":[],"default_left":[0,0,0,0,0,0,0,0,0,0,0,0,0,0,0,0,0,0,0],"id":7,"left_children":[1,3,-1,-1,5,7,9,11,13,15,17,-1,-1,-1,-1,-1,-1,-1,-1],"loss_changes":[3.5179208E2,5.890462E1,0E0,0E0,4.317237E1,4.507168E1,3.775669E0,5.1502117E1,4.6762474E1,4.8057585E0,1.19773865E-1,0E0,0E0,0E0,0E0,0E0,0E0,0E0,0E0],"parents":[2147483647,0,0,1,1,4,4,5,5,6,6,7,7,8,8,9,9,10,10],"right_children":[2,4,-1,-1,6,8,10,12,14,16,18,-1,-1,-1,-1,-1,-1,-1,-1],"split_conditions":[1E0,1E0,1.428045E-1,1.4198555E-1,1.4E2,3.5E1,1.88E2,1E0,4E0,2E0,1.2E1,8.664473E-3,-8.822132E-2,-4.0248673E-2,3.1910427E-3,6.88899E-2,-9.253786E-2,1.266123E-1,4.917754E-2],"split_indices":[10,9,0,0,0,0,0,5,9,6,6,0,0,0,0,0,0,0,0],"split_type":[0,0,0,0,0,0,0,0,0,0,0,0,0,0,0,0,0,0,0],"sum_hessian":[2.3053032E3,2.145971E3,1.5933228E2,2.3962465E1,2.1220085E3,2.0843643E3,3.7644226E1,9.011034E2,1.1832609E3,1.750659E1,2.0137634E1,8.434239E2,5.7679523E1,8.304197E2,3.5284116E2,1.6311272E1,1.1953197E0,1.8181871E1,1.955762E0],"tree_param":{"num_deleted":"0","num_feature":"12","num_nodes":"19","size_leaf_vector":"1"}},{"base_weights":[-5.749477E-4,-9.771905E-2,1.3496232E-1,1.3423043E-1,-1.1403222E-1,-1.2351208E-1,1.8216385E0,-1.493849E-1,5.293463E-1,-2.8376635E-3,2.1284047E-1,2.0650344E-3,-2.8670598E-2,4.3425303E-2,1.361246E-1],"categories":[],"categories_nodes":[],"categories_segments":[],"categories_sizes":[],"default_left":[0,0,0,0,0,0,0,0,0,0,0,0,0,0,0],"id":8,"left_children":[1,3,-1,-1,5,7,9,11,13,-1,-1,-1,-1,-1,-1],"loss_changes":[2.9930396E2,5.0160137E1,0E0,0E0,3.8866596E1,3.549157E1,5.9208565E0,4.7110058E1,5.748371E0,0E0,0E0,0E0,0E0,0E0,0E0],"parents":[2147483647,0,0,1,1,4,4,5,5,6,6,7,7,8,8],"right_children":[2,4,-1,-1,6,8,10,12,14,-1,-1,-1,-1,-1,-1],"split_conditions":[1E0,1E0,1.3496232E-1,1.3423043E-1,1E0,6E0,5.5E1,3.5E1,9E0,-2.8376635E-3,2.1284047E-1,2.0650344E-3,-2.8670598E-2,4.3425303E-2,1.361246E-1],"split_indices":[10,9,0,0,4,9,0,0,9,0,0,0,0,0,0],"split_type":[0,0,0,0,0,0,0,0,0,0,0,0,0,0,0],"sum_hessian":[2.2799043E3,2.1277449E3,1.5215944E2,2.2923456E1,2.1048215E3,2.095495E3,9.326405E0,2.0163579E3,7.913719E1,1.4556013E0,7.870803E0,9.012507E2,1.1151072E3,7.238497E1,6.7522182E0],"tree_param":{"num_deleted":"0","num_feature":"12","num_nodes":"15","size_leaf_vector":"1"}},{"base_weights":[-1.2230965E-4,-8.846875E-2,1.2831365E-1,1.2765214E0,-1.0330931E-1,1.3130541E-1,4.4331342E-2,-1.2528971E-1,6.6389817E-1,1.901482E-2,-2.403963E-1,-6.5918095E-2,1.1678536E0,7.5544463E-3,-8.3545424E-2,-3.6029514E-2,3.8222019E-3,-3.7600894E-2,6.227338E-2,1.2563471E-1,5.6842186E-2],"categories":[],"categories_nodes":[],"categories_segments":[],"categories_sizes":[],"default_left":[0,0,0,0,0,0,0,0,0,0,0,0,0,0,0,0,0,0,0,0,0],"id":9,"left_children":[1,3,-1,5,7,-1,-1,9,11,13,15,17,19,-1,-1,-1,-1,-1,-1,-1,-1],"loss_changes":[2.5607693E2,4.294056E1,0E0,1.12033844E-1,3.5352425E1,0E0,0E0,3.379084E1,2.1559774E1,4.3703625E1,3.7814842E1,5.531133E0,1.1214905E0,0E0,0E0,0E0,0E0,0E0,0E0,0E0,0E0],"parents":[2147483647,0,0,1,1,3,3,4,4,7,7,8,8,9,9,10,10,11,11,12,12],"right_children":[2,4,-1,6,8,-1,-1,10,12,14,16,18,20,-1,-1,-1,-1,-1,-1,-1,-1],"split_conditions":[1E0,1E0,1.2831365E-1,3.7E1,1.21E2,1.3130541E-1,4.4331342E-2,3.5E1,1E0,1E0,4E0,6E0,1E0,7.5544463E-3,-8.3545424E-2,-3.6029514E-2,3.8222019E-3,-3.7600894E-2,6.227338E-2,1.2563471E-1,5.6842186E-2],"split_indices":[10,9,0,0,0,0,0,0,5,5,9,9,6,0,0,0,0,0,0,0,0],"split_type":[0,0,0,0,0,0,0,0,0,0,0,0,0,0,0,0,0,0,0,0,0],"sum_hessian":[2.2567437E3,2.1122556E3,1.44488E2,2.180367E1,2.090452E3,2.0336117E1,1.4675548E0,2.0330422E3,5.74097E1,9.024773E2,1.1305648E3,2.3805027E1,3.360467E1,8.473315E2,5.5145847E1,7.902154E2,3.403495E2,1.672705E1,7.0779767E0,2.8326904E1,5.277768E0],"tree_param":{"num_deleted":"0","num_feature":"12","num_nodes":"21","size_leaf_vector":"1"}},{"base_weights":[1.4685765E-4,-8.028591E-2,1.2256744E-1,1.2207844E0,-9.382587E-2,1.2568723E-1,4.2171292E-2,-1.0246621E-1,1.6244028E0,-1.15143254E-1,9.582581E-1,-1.965495E-3,1.8907006E-1,1.7222337E-3,-2.1992398E-2,3.9112024E-2,1.081646E-1],"categories":[],"categories_nodes":[],"categories_segments":[],"categories_sizes":[],"default_left":[0,0,0,0,0,0,0,0,0,0,0,0,0,0,0,0,0],"id":10,"left_children":[1,3,-1,5,7,-1,-1,9,11,13,15,-1,-1,-1,-1,-1,-1],"loss_changes":[2.2021404E2,3.7046364E1,0E0,9.467316E-2,3.0983593E1,0E0,0E0,2.7895975E1,4.610262E0,2.833639E1,1.2921753E0,0E0,0E0,0E0,0E0,0E0,0E0],"parents":[2147483647,0,0,1,1,3,3,4,4,7,7,8,8,9,9,10,10],"right_children":[2,4,-1,6,8,-1,-1,10,12,14,16,-1,-1,-1,-1,-1,-1],"split_conditions":[1E0,1E0,1.2256744E-1,3.7E1,1E0,1.2568723E-1,4.2171292E-2,1.69E2,5.5E1,3.5E1,1E0,-1.965495E-3,1.8907006E-1,1.7222337E-3,-2.1992398E-2,3.9112024E-2,1.081646E-1],"split_indices":[10,9,0,0,4,0,0,0,0,0,5,0,0,0,0,0,0],"split_type":[0,0,0,0,0,0,0,0,0,0,0,0,0,0,0,0,0],"sum_hessian":[2.2320315E3,2.09544E3,1.365916E2,2.066387E1,2.074776E3,1.922281E1,1.4410589E0,2.0653306E3,9.445426E0,2.0418196E3,2.351097E1,1.4457723E0,7.999654E0,9.0252673E2,1.1392928E3,4.9461975E0,1.8564772E1],"tree_param":{"num_deleted":"0","num_feature":"12","num_nodes":"17","size_leaf_vector":"1"}},{"base_weights":[5.966784E-4,-7.255585E-2,1.1751361E0,1.1719674E0,-8.48983E-2,1.0648747E-1,1.2721026E0,1.2080661E-1,4.012849E-2,-1.0909624E-1,4.9899042E-1,2.2226904E-2,1.2871191E-1,1.03784084E-1,-1.7101447E-1,4.1360968E-1,1.2153004E0,-5.4661937E-2,1.3927894E-2,-2.0812074E-2,3.186352E-2,6.336144E-2,5.5372836E-3,-2.8192986E-2,1.4812003E-1],"categories":[],"categories_nodes":[],"categories_segments":[],"categories_sizes":[],"default_left":[0,0,0,0,0,0,0,0,0,0,0,0,0,0,0,0,0,0,0,0,0,0,0,0,0],"id":11,"left_children":[1,3,5,7,9,-1,11,-1,-1,13,15,-1,-1,17,19,21,23,-1,-1,-1,-1,-1,-1,-1,-1],"loss_changes":[1.9003076E2,3.208059E1,3.1784058E-2,8.5912704E-2,2.9195656E1,0E0,7.206192E-1,0E0,0E0,2.613323E1,4.527958E0,0E0,0E0,1.0396643E1,2.79599E1,5.876769E0,3.6997461E0,0E0,0E0,0E0,0E0,0E0,0E0,0E0,0E0],"parents":[2147483647,0,0,1,1,2,2,3,3,4,4,6,6,9,9,10,10,13,13,14,14,15,15,16,16],"right_children":[2,4,6,8,10,-1,12,-1,-1,14,16,-1,-1,18,20,22,24,-1,-1,-1,-1,-1,-1,-1,-1],"split_conditions":[1E0,1E0,1E0,3.7E1,6E0,1.0648747E-1,3.4E1,1.2080661E-1,4.012849E-2,2.6E1,9E0,2.2226904E-2,1.2871191E-1,1.3E1,9.2E1,8.4E1,7.6E1,-5.4661937E-2,1.3927894E-2,-2.0812074E-2,3.186352E-2,6.336144E-2,5.5372836E-3,-2.8192986E-2,1.4812003E-1],"split_indices":[10,9,5,0,9,0,0,0,0,0,9,0,0,0,0,0,0,0,0,0,0,0,0,0,0],"split_type":[0,0,0,0,0,0,0,0,0,0,0,0,0,0,0,0,0,0,0,0,0,0,0,0,0],"sum_hessian":[2.2097117E3,2.0810388E3,1.286728E2,1.9513222E1,2.0615256E3,6.58154E1,6.2857403E1,1.8097986E1,1.4152348E0,1.980271E3,8.125463E1,1.1092483E0,6.1748154E1,4.4604688E2,1.5342241E3,7.401037E1,7.2442665E0,2.2337482E1,4.2370938E2,1.4266833E3,1.07540855E2,4.537526E1,2.8635107E1,1.0834249E0,6.1608415E0],"tree_param":{"num_deleted":"0","num_feature":"12","num_nodes":"25","size_leaf_vector":"1"}},{"base_weights":[9.237738E-4,-6.5643765E-2,1.1304271E0,1.1285633E0,-7.6893255E-2,1.01784006E-1,1.2306136E0,1.1650385E-1,3.8194373E-2,-8.4826164E-2,1.4815022E0,2.1191357E-2,1.2460482E-1,-1.06108926E-1,4.2264155E-1,-6.2892097E-4,1.7186992E-1,2.0043636E-3,-2.1328863E-2,2.2848703E-2,6.654879E-2],"categories":[],"categories_nodes":[],"categories_segments":[],"categories_sizes":[],"default_left":[0,0,0,0,0,0,0,0,0,0,0,0,0,0,0,0,0,0,0,0,0],"id":12,"left_children":[1,3,5,7,9,-1,11,-1,-1,13,15,-1,-1,17,19,-1,-1,-1,-1,-1,-1],"loss_changes":[1.6475223E2,2.7885658E1,1.230011E-1,8.264732E-2,2.5479925E1,0E0,6.75354E-1,0E0,0E0,2.2093067E1,3.69549E0,0E0,0E0,2.6506388E1,3.7317066E0,0E0,0E0,0E0,0E0,0E0,0E0],"parents":[2147483647,0,0,1,1,2,2,3,3,4,4,6,6,9,9,10,10,13,13,14,14],"right_children":[2,4,6,8,10,-1,12,-1,-1,14,16,-1,-1,18,20,-1,-1,-1,-1,-1,-1],"split_conditions":[1E0,1E0,1E0,3.7E1,1E0,1.01784006E-1,3.4E1,1.1650385E-1,3.8194373E-2,6E0,5.5E1,2.1191357E-2,1.2460482E-1,3.5E1,7E0,-6.2892097E-4,1.7186992E-1,2.0043636E-3,-2.1328863E-2,2.2848703E-2,6.654879E-2],"split_indices":[10,9,5,0,4,0,0,0,0,9,0,0,0,0,9,0,0,0,0,0,0],"split_type":[0,0,0,0,0,0,0,0,0,0,0,0,0,0,0,0,0,0,0,0,0],"sum_hessian":[2.1892092E3,2.0682578E3,1.20951355E2,1.8374403E1,2.0498835E3,6.22056E1,5.8745758E1,1.698424E1,1.3901625E0,2.0404423E3,9.441162E0,1.0966358E0,5.764912E1,1.9590714E3,8.137088E1,1.4320803E0,8.009082E0,9.002605E2,1.0588109E3,4.6297287E1,3.5073597E1],"tree_param":{"num_deleted":"0","num_feature":"12","num_nodes":"21","size_leaf_vector":"1"}},{"base_weights":[1.2889667E-3,-5.9272487E-2,1.08992E0,1.97778E-1,-1.0557815E-1,9.741548E-2,1.1944183E0,1.1137853E-1,1.5002353E-1,-1.3733116E-1,3.542914E-1,2.0205406E-2,1.21041596E-1,-5.061869E-1,2.0352502E-1,-1.9776286E-1,1.1336322E-1,-2.7291036E-1,1.1129693E0,-8.084524E-2,-2.4624659E-2,1.7911458E-2,1.238426E-1,-6.719224E-3,-3.444513E-2,1.864344E-2,-4.4621427E-2,-3.668265E-2,9.903028E-2,1.3158664E-1,-4.129344E-3],"categories":[],"categories_nodes":[],"categories_segments":[],"categories_sizes":[],"default_left":[0,0,0,0,0,0,0,0,0,0,0,0,0,0,0,0,0,0,0,0,0,0,0,0,0,0,0,0,0,0,0],"id":13,"left_children":[1,3,5,7,9,-1,11,-1,13,15,17,-1,-1,19,21,23,25,27,29,-1,-1,-1,-1,-1,-1,-1,-1,-1,-1,-1,-1],"loss_changes":[1.431873E2,2.4509945E1,2.2103882E-1,1.3585826E1,2.5515047E1,0E0,6.4019775E-1,0E0,1.0634674E1,2.4748304E1,5.4036762E1,0E0,0E0,1.6002321E0,6.803053E0,2.517173E1,1.3071333E1,7.792284E0,1.2068935E1,0E0,0E0,0E0,0E0,0E0,0E0,0E0,0E0,0E0,0E0,0E0,0E0],"parents":[2147483647,0,0,1,1,2,2,3,3,4,4,6,6,8,8,9,9,10,10,13,13,14,14,15,15,16,16,17,17,18,18],"right_children":[2,4,6,8,10,-1,12,-1,14,16,18,-1,-1,20,22,24,26,28,30,-1,-1,-1,-1,-1,-1,-1,-1,-1,-1,-1,-1],"split_conditions":[1E0,2.3E1,1E0,1E0,9.7E1,9.741548E-2,3.4E1,1.1137853E-1,1.3E1,4E0,1E0,2.0205406E-2,1.21041596E-1,1.1E1,3E0,3.8E1,8.4E1,9E0,1E0,-8.084524E-2,-2.4624659E-2,1.7911458E-2,1.238426E-1,-6.719224E-3,-3.444513E-2,1.864344E-2,-4.4621427E-2,-3.668265E-2,9.903028E-2,1.3158664E-1,-4.129344E-3],"split_indices":[10,0,5,9,0,0,0,0,0,9,5,0,0,0,9,0,0,9,6,0,0,0,0,0,0,0,0,0,0,0,0],"split_type":[0,0,0,0,0,0,0,0,0,0,0,0,0,0,0,0,0,0,0,0,0,0,0,0,0,0,0,0,0,0,0],"sum_hessian":[2.1698586E3,2.0564045E3,1.1345396E2,3.133996E2,1.743005E3,5.872238E1,5.4731575E1,1.4422859E1,2.9897675E2,1.6310835E3,1.1192149E2,1.0845621E0,5.364701E1,2.1900454E1,2.770763E2,1.3144395E3,3.1664407E2,6.1620163E1,5.030133E1,9.150207E0,1.2750247E1,2.7183746E2,5.2388196E0,6.96197E2,6.1824243E2,2.8066135E2,3.5982708E1,5.801642E1,3.6037414E0,4.2662144E1,7.639187E0],"tree_param":{"num_deleted":"0","num_feature":"12","num_nodes":"31","size_leaf_vector":"1"}},{"base_weights":[1.4482087E-3,-5.370195E-2,1.0527024E0,-5.9869442E-2,1.7164604E-1,9.330945E-2,1.1624678E0,1.0553976E0,-6.928773E-2,1.9266501E-2,1.179164E-1,1.0957431E-1,2.7099488E-2,-8.871952E-2,3.7913406E-1,1.6819645E-3,-1.803769E-2,6.0743964E-3,5.3086836E-2],"categories":[],"categories_nodes":[],"categories_segments":[],"categories_sizes":[],"default_left":[0,0,0,0,0,0,0,0,0,0,0,0,0,0,0,0,0,0,0],"id":14,"left_children":[1,3,5,7,-1,-1,9,11,13,-1,-1,-1,-1,15,17,-1,-1,-1,-1],"loss_changes":[1.2474824E2,2.2423111E1,3.2341766E-1,2.1483566E1,0E0,0E0,6.1252594E-1,2.4520302E-1,1.7654343E1,0E0,0E0,0E0,0E0,1.8760033E1,4.034521E0,0E0,0E0,0E0,0E0],"parents":[2147483647,0,0,1,1,2,2,3,3,6,6,7,7,8,8,13,13,14,14],"right_children":[2,4,6,8,-1,-1,10,12,14,-1,-1,-1,-1,16,18,-1,-1,-1,-1],"split_conditions":[1E0,2E0,1E0,1E0,1.7164604E-1,9.330945E-2,3.4E1,3.7E1,6E0,1.9266501E-2,1.179164E-1,1.0957431E-1,2.7099488E-2,3.5E1,6.7E1,1.6819645E-3,-1.803769E-2,6.0743964E-3,5.3086836E-2],"split_indices":[10,5,5,9,0,0,0,0,9,0,0,0,0,0,0,0,0,0,0],"split_type":[0,0,0,0,0,0,0,0,0,0,0,0,0,0,0,0,0,0,0],"sum_hessian":[2.1497158E3,2.0434622E3,1.06253746E2,2.03733E3,6.132165E0,5.53937E1,5.0860046E1,1.6130905E1,2.0211991E3,1.0730115E0,4.9787033E1,1.4964309E1,1.1665962E0,1.9380197E3,8.317946E1,9.011753E2,1.0368444E3,2.7298428E1,5.588103E1],"tree_param":{"num_deleted":"0","num_feature":"12","num_nodes":"19","size_leaf_vector":"1"}},{"base_weights":[1.7341232E-3,-4.8425645E-2,1.0180578E0,-5.4091085E-2,1.6021624E-1,8.940985E-2,1.133943E0,1.7234962E-1,-9.557086E-2,1.8372253E-2,1.151467E-1,1.0459919E-1,1.3249137E-1,-1.18132144E-1,3.3812353E-1,-4.705719E-2,1.8042434E-2,-1.02804825E-2,-7.619258E-2,5.476416E-3,4.7151726E-2],"categories":[],"categories_nodes":[],"categories_segments":[],"categories_sizes":[],"default_left":[0,0,0,0,0,0,0,0,0,0,0,0,0,0,0,0,0,0,0,0,0],"id":15,"left_children":[1,3,5,7,-1,-1,9,11,13,-1,-1,-1,15,17,19,-1,-1,-1,-1,-1,-1],"loss_changes":[1.08822E2,1.910998E1,4.283905E-1,1.9067749E1,0E0,0E0,5.904236E-1,1.0808757E1,1.6819956E1,0E0,0E0,0E0,8.809182E0,1.6014431E1,3.1892977E0,0E0,0E0,0E0,0E0,0E0,0E0],"parents":[2147483647,0,0,1,1,2,2,3,3,6,6,7,7,8,8,12,12,13,13,14,14],"right_children":[2,4,6,8,-1,-1,10,12,14,-1,-1,-1,16,18,20,-1,-1,-1,-1,-1,-1],"split_conditions":[1E0,2E0,1E0,2.3E1,1.6021624E-1,8.940985E-2,3.4E1,1E0,6E0,1.8372253E-2,1.151467E-1,1.0459919E-1,1.3E1,1E0,6.7E1,-4.705719E-2,1.8042434E-2,-1.02804825E-2,-7.619258E-2,5.476416E-3,4.7151726E-2],"split_indices":[10,5,5,0,0,0,0,9,9,0,0,0,0,6,0,0,0,0,0,0,0],"split_type":[0,0,0,0,0,0,0,0,0,0,0,0,0,0,0,0,0,0,0,0,0],"sum_hessian":[2.132695E3,2.0332958E3,9.9399185E1,2.0273046E3,5.991241E0,5.2237442E1,4.716174E1,3.1338132E2,1.7139232E3,1.0619678E0,4.6099773E1,1.2572187E1,3.0080914E2,1.6298634E3,8.405977E1,2.1499416E1,2.7930972E2,1.593095E3,3.6768433E1,2.7357212E1,5.6702553E1],"tree_param":{"num_deleted":"0","num_feature":"12","num_nodes":"21","size_leaf_vector":"1"}},{"base_weights":[1.891584E-3,-4.371815E-2,9.8541486E-1,-5.038983E-2,1.2390709E0,8.3274937E-1,1.0870304E-1,1.0593622E-1,-5.8739208E-2,5.527128E-3,1.4451252E0,8.821954E-2,1.4305112E-1,-6.886738E-2,8.1639516E-1,2.2995274E-3,1.6659005E-1,-4.0203866E-2,6.889494E-2,-5.4609017E-3,-8.810966E-2,5.115021E-2,1.0123312E-1],"categories":[],"categories_nodes":[],"categories_segments":[],"categories_sizes":[],"default_left":[0,0,0,0,0,0,0,0,0,0,0,0,0,0,0,0,0,0,0,0,0,0,0],"id":16,"left_children":[1,3,5,7,9,11,-1,-1,13,-1,15,-1,17,19,21,-1,-1,-1,-1,-1,-1,-1,-1],"loss_changes":[9.5063286E1,1.7395782E1,5.5176544E-1,1.8740057E1,2.4857635E0,1.2995338E0,0E0,0E0,1.7798218E1,0E0,2.7619762E0,0E0,1.4643425E0,2.2879028E1,8.549366E-1,0E0,0E0,0E0,0E0,0E0,0E0,0E0,0E0],"parents":[2147483647,0,0,1,1,2,2,3,3,4,4,5,5,8,8,10,10,12,12,13,13,14,14],"right_children":[2,4,6,8,10,12,-1,-1,14,-1,16,-1,18,20,22,-1,-1,-1,-1,-1,-1,-1,-1],"split_conditions":[1E0,1E0,7.8E1,1E0,5.5E1,7.2E1,1.0870304E-1,1.0593622E-1,1.69E2,5.527128E-3,3E0,8.821954E-2,5E0,1E0,2.1E2,2.2995274E-3,1.6659005E-1,-4.0203866E-2,6.889494E-2,-5.4609017E-3,-8.810966E-2,5.115021E-2,1.0123312E-1],"split_indices":[10,4,0,9,0,0,0,0,0,0,9,0,9,6,0,0,0,0,0,0,0,0,0],"split_type":[0,0,0,0,0,0,0,0,0,0,0,0,0,0,0,0,0,0,0,0,0,0,0],"sum_hessian":[2.1172327E3,2.0243132E3,9.291959E1,2.0147952E3,9.518058E0,4.0806984E1,5.211261E1,1.4105403E1,2.0006897E3,1.5991337E0,7.918924E0,3.781672E1,2.990268E0,1.9787108E3,2.1978855E1,1.2125307E0,6.7063932E0,1.6281037E0,1.3621643E0,1.9456234E3,3.3087414E1,1.0011172E1,1.1967683E1],"tree_param":{"num_deleted":"0","num_feature":"12","num_nodes":"23","size_leaf_vector":"1"}},{"base_weights":[2.125302E-3,-3.9349824E-2,9.5417786E-1,-4.4399988E-2,1.493827E-1,8.179667E-2,1.0860226E0,1.5734498E-1,-8.1606194E-2,1.3441451E-2,1.1061674E-1,9.866353E-2,1.2424664E-1,-1.0715166E-1,2.6014304E-1,-4.901988E-3,2.6984802E-2,-1.6529558E-2,1.3295143E-2,-2.7167043E-2,1.0085988E-1],"categories":[],"categories_nodes":[],"categories_segments":[],"categories_sizes":[],"default_left":[0,0,0,0,0,0,0,0,0,0,0,0,0,0,0,0,0,0,0,0,0],"id":17,"left_children":[1,3,5,7,-1,-1,9,11,13,-1,-1,-1,15,17,19,-1,-1,-1,-1,-1,-1],"loss_changes":[8.310302E1,1.5681876E1,6.894684E-1,1.5108752E1,0E0,0E0,6.4863586E-1,8.482077E0,1.4857306E1,0E0,0E0,0E0,7.6471844E0,2.2096563E1,4.741501E1,0E0,0E0,0E0,0E0,0E0,0E0],"parents":[2147483647,0,0,1,1,2,2,3,3,6,6,7,7,8,8,12,12,13,13,14,14],"right_children":[2,4,6,8,-1,-1,10,12,14,-1,-1,-1,16,18,20,-1,-1,-1,-1,-1,-1],"split_conditions":[1E0,2E0,1E0,2.3E1,1.493827E-1,8.179667E-2,3.4E1,1E0,9.4E1,1.3441451E-2,1.1061674E-1,9.866353E-2,1.9E1,4E0,1E0,-4.901988E-3,2.6984802E-2,-1.6529558E-2,1.3295143E-2,-2.7167043E-2,1.0085988E-1],"split_indices":[10,5,5,0,0,0,0,9,0,0,0,0,0,9,5,0,0,0,0,0,0],"split_type":[0,0,0,0,0,0,0,0,0,0,0,0,0,0,0,0,0,0,0,0,0],"sum_hessian":[2.102642E3,2.0157854E3,8.685681E1,2.0101351E3,5.650186E0,4.6264313E1,4.0592495E1,3.1248798E2,1.6976472E3,1.0005505E0,3.9591946E1,1.08875475E1,3.0160043E2,1.5802141E3,1.17433174E2,1.3801959E2,1.6358083E2,1.2723987E3,3.0781543E2,6.902479E1,4.8408382E1],"tree_param":{"num_deleted":"0","num_feature":"12","num_nodes":"21","size_leaf_vector":"1"}},{"base_weights":[2.2630955E-3,-3.547219E-2,9.2421234E-1,-2.3978908E-2,-6.5015626E-1,7.829917E-2,1.0641562E0,-4.6114083E-2,3.5106474E-1,-8.240918E-1,7.6803577E-1,2.2965735E-2,1.0851709E-1,1.0136315E0,-5.3847384E-2,-1.8327683E-1,1.1066766E0,-5.345923E-1,-1.0845026E0,9.872306E-2,3.1647097E-2,4.2541865E-2,1.0763502E-1,-9.062099E-3,1.3252394E-2,1.1605835E-1,-2.9836768E-2,2.380099E-2,1.3359328E-1,-9.4983675E-2,-3.5887986E-2,-1.1849655E-1,-4.0247787E-2],"categories":[],"categories_nodes":[],"categories_segments":[],"categories_sizes":[],"default_left":[0,0,0,0,0,0,0,0,0,0,0,0,0,0,0,0,0,0,0,0,0,0,0,0,0,0,0,0,0,0,0,0,0],"id":18,"left_children":[1,3,5,7,9,-1,11,13,15,17,19,-1,-1,21,23,25,27,29,31,-1,-1,-1,-1,-1,-1,-1,-1,-1,-1,-1,-1,-1,-1],"loss_changes":[7.269341E1,1.416608E1,7.904892E-1,1.6383585E1,9.712178E0,0E0,4.2562866E-1,1.5319098E1,4.4613575E1,1.9282703E0,1.368072E-1,0E0,0E0,4.1760445E-2,1.2691368E1,1.04442625E1,8.784126E0,9.524951E-1,6.564884E-1,0E0,0E0,0E0,0E0,0E0,0E0,0E0,0E0,0E0,0E0,0E0,0E0,0E0,0E0],"parents":[2147483647,0,0,1,1,2,2,3,3,4,4,6,6,7,7,8,8,9,9,10,10,13,13,14,14,15,15,16,16,17,17,18,18],"right_children":[2,4,6,8,10,-1,12,14,16,18,20,-1,-1,22,24,26,28,30,32,-1,-1,-1,-1,-1,-1,-1,-1,-1,-1,-1,-1,-1,-1],"split_conditions":[1E0,1E0,1E0,9.4E1,2.1E2,7.829917E-2,3.6E1,1E0,1E0,7.3E1,1.2E1,2.2965735E-2,1.0851709E-1,1.2E1,4E0,2E0,2E0,2E0,5E0,9.872306E-2,3.1647097E-2,4.2541865E-2,1.0763502E-1,-9.062099E-3,1.3252394E-2,1.1605835E-1,-2.9836768E-2,2.380099E-2,1.3359328E-1,-9.4983675E-2,-3.5887986E-2,-1.1849655E-1,-4.0247787E-2],"split_indices":[10,6,5,0,0,0,0,9,5,0,6,0,0,0,9,9,9,9,9,0,0,0,0,0,0,0,0,0,0,0,0,0,0],"split_type":[0,0,0,0,0,0,0,0,0,0,0,0,0,0,0,0,0,0,0,0,0,0,0,0,0,0,0,0,0,0,0,0,0],"sum_hessian":[2.087548E3,2.0063884E3,8.115974E1,1.9705818E3,3.5806664E1,4.367814E1,3.74816E1,1.8615874E3,1.0899435E2,3.2268032E1,3.5386298E0,1.2137009E0,3.62679E1,1.254387E1,1.8490436E3,6.428895E1,4.4705395E1,1.6726269E1,1.5541763E1,1.5836594E0,1.9549705E0,1.9585376E0,1.0585333E1,1.5447559E3,3.042877E2,4.354893E0,5.9934055E1,9.760481E0,3.4944916E1,3.663362E0,1.3062907E1,1.2903624E1,2.6381395E0],"tree_param":{"num_deleted":"0","num_feature":"12","num_nodes":"33","size_leaf_vector":"1"}},{"base_weights":[2.330884E-3,-3.198993E-2,8.9514273E-1,-3.7824534E-2,1.1170183E0,7.488496E-1,1.0437744E0,9.854818E-1,-4.4297714E-2,3.3511042E-3,1.316581E0,9.912373E-2,6.8103224E-1,2.1883728E-2,1.0661163E-1,4.0601343E-2,1.0505837E-1,-3.359911E-2,-6.3869643E-1,-6.4406605E-3,1.5371087E-1,2.0480312E-1,7.236772E-1,-5.3475956E-3,3.0648554E-2,-8.0364935E-2,7.094027E-2,-3.8654123E-2,5.0712254E-2,5.6896698E-2,8.412563E-2],"categories":[],"categories_nodes":[],"categories_segments":[],"categories_sizes":[],"default_left":[0,0,0,0,0,0,0,0,0,0,0,0,0,0,0,0,0,0,0,0,0,0,0,0,0,0,0,0,0,0,0],"id":19,"left_children":[1,3,5,7,9,11,13,15,17,-1,19,-1,21,-1,-1,-1,-1,23,25,-1,-1,27,29,-1,-1,-1,-1,-1,-1,-1,-1],"loss_changes":[6.3622417E1,1.3447031E1,8.8962555E-1,1.3228039E1,2.1473246E0,1.984787E-2,4.2258453E-1,4.7062874E-2,1.2562372E1,0E0,2.697523E0,0E0,5.8753014E-1,0E0,0E0,0E0,0E0,1.3163513E1,8.337979E0,0E0,0E0,9.776596E-1,1.1902046E-1,0E0,0E0,0E0,0E0,0E0,0E0,0E0,0E0],"parents":[2147483647,0,0,1,1,2,2,3,3,4,4,5,5,6,6,7,7,8,8,10,10,12,12,17,17,18,18,21,21,22,22],"right_children":[2,4,6,8,10,12,14,16,18,-1,20,-1,22,-1,-1,-1,-1,24,26,-1,-1,28,30,-1,-1,-1,-1,-1,-1,-1,-1],"split_conditions":[1E0,1E0,1E0,1E0,5.5E1,3.1E1,3.6E1,1.2E1,1E0,3.3511042E-3,3E0,9.912373E-2,3.8E1,2.1883728E-2,1.0661163E-1,4.0601343E-2,1.0505837E-1,9.4E1,2.1E2,-6.4406605E-3,1.5371087E-1,2E0,7.8E1,-5.3475956E-3,3.0648554E-2,-8.0364935E-2,7.094027E-2,-3.8654123E-2,5.0712254E-2,5.6896698E-2,8.412563E-2],"split_indices":[10,4,5,9,0,0,0,0,6,0,9,0,0,0,0,0,0,0,0,0,0,9,0,0,0,0,0,0,0,0,0],"split_type":[0,0,0,0,0,0,0,0,0,0,0,0,0,0,0,0,0,0,0,0,0,0,0,0,0,0,0,0,0,0,0],"sum_hessian":[2.074378E3,1.9985165E3,7.586132E1,1.9893816E3,9.134898E0,4.12745E1,3.458682E1,1.1554534E1,1.9778271E3,1.6024524E0,7.532446E0,6.046668E0,3.5227833E1,1.1966748E0,3.3390144E1,1.8979118E0,9.656622E0,1.9438954E3,3.3931725E1,1.1346965E0,6.3977494E0,3.3721802E0,3.1855654E1,1.837351E3,1.0654446E2,3.0592323E1,3.3394005E0,1.0465387E0,2.3256416E0,1.6277193E1,1.5578461E1],"tree_param":{"num_deleted":"0","num_feature":"12","num_nodes":"31","size_leaf_vector":"1"}},{"base_weights":[2.5388368E-3,-2.874705E-2,8.676185E-1,-3.3134975E-2,1.3950348E-1,7.175223E-1,1.0245613E0,5.5499822E-2,-1.0644493E-1,9.6817724E-2,6.4876163E-1,4.7081536E-1,1.07683085E-1,1.048324E-1,-7.5367576E-1,-1.7861427E-1,2.515587E-1,1.9012308E-1,6.91366E-1,5.494493E-2,1.1978136E-2,9.345448E-2,9.409757E-3,-9.187648E-2,7.782551E-2,-2.7560292E-2,-8.661191E-4,-1.3352446E-2,8.62429E-2,-3.612307E-2,4.8475094E-2,5.372073E-2,8.109474E-2],"categories":[],"categories_nodes":[],"categories_segments":[],"categories_sizes":[],"default_left":[0,0,0,0,0,0,0,0,0,0,0,0,0,0,0,0,0,0,0,0,0,0,0,0,0,0,0,0,0,0,0,0,0],"id":20,"left_children":[1,3,5,7,-1,9,11,13,15,-1,17,19,-1,21,23,25,27,29,31,-1,-1,-1,-1,-1,-1,-1,-1,-1,-1,-1,-1,-1,-1],"loss_changes":[5.588564E1,1.2496708E1,9.6258545E-1,1.2921905E1,0E0,6.4323425E-2,4.4512177E-1,3.6025013E1,2.816233E1,0E0,5.4382324E-1,6.1550617E-2,0E0,7.4794216E0,1.38323345E1,1.4936201E1,4.3161335E1,8.763237E-1,1.4027596E-1,0E0,0E0,0E0,0E0,0E0,0E0,0E0,0E0,0E0,0E0,0E0,0E0,0E0,0E0],"parents":[2147483647,0,0,1,1,2,2,3,3,5,5,6,6,7,7,8,8,10,10,11,11,13,13,14,14,15,15,16,16,17,17,18,18],"right_children":[2,4,6,8,-1,10,12,14,16,-1,18,20,-1,22,24,26,28,30,32,-1,-1,-1,-1,-1,-1,-1,-1,-1,-1,-1,-1,-1,-1],"split_conditions":[1E0,2E0,1E0,3.5E1,1.3950348E-1,3.1E1,4.7E1,1E0,1E0,9.6817724E-2,3.8E1,4.3E1,1.07683085E-1,1E0,3.3E1,4E0,7.8E1,2E0,7.8E1,5.494493E-2,1.1978136E-2,9.345448E-2,9.409757E-3,-9.187648E-2,7.782551E-2,-2.7560292E-2,-8.661191E-4,-1.3352446E-2,8.62429E-2,-3.612307E-2,4.8475094E-2,5.372073E-2,8.109474E-2],"split_indices":[10,5,5,0,0,0,0,5,5,0,0,0,0,9,0,9,0,9,0,0,0,0,0,0,0,0,0,0,0,0,0,0,0],"split_type":[0,0,0,0,0,0,0,0,0,0,0,0,0,0,0,0,0,0,0,0,0,0,0,0,0,0,0,0,0,0,0,0,0],"sum_hessian":[2.0629624E3,1.9918917E3,7.107064E1,1.9867455E3,5.1461825E0,3.9175785E1,3.1894857E1,8.9947986E2,1.0872657E3,5.6175656E0,3.355822E1,3.6141217E0,2.8280735E1,8.4861334E2,5.086652E1,9.052741E2,1.819916E2,3.3166628E0,3.0241556E1,2.4909108E0,1.1232109E0,9.739953E0,8.3887335E2,4.6279457E1,4.587063E0,5.759627E2,3.2931137E2,1.1210424E2,6.988736E1,1.0763571E0,2.2403057E0,1.5610125E1,1.4631432E1],"tree_param":{"num_deleted":"0","num_feature":"12","num_nodes":"33","size_leaf_vector":"1"}},{"base_weights":[2.594359E-3,-2.6004186E-2,8.407917E-1,-1.6113145E-2,-5.9701604E-1,6.869509E-1,1.006366E0,-2.0197673E-2,1.3149437E-1,-7.5356317E-1,6.248225E-1,8.96112E-2,6.026627E-1,4.4925153E-1,1.06222264E-1,1.3801043E-1,-5.0298408E-2,-4.4057664E-1,-1.0368919E0,2.0556081E-2,9.414593E-2,-2.876441E-2,6.491724E-1,5.2552547E-2,1.1404441E-2,-7.468545E-2,1.6691836E-2,-6.852834E-3,2.8951405E-2,-8.9486234E-2,-2.5880128E-2,-1.1452713E-1,-3.5570618E-2,4.799922E-2,7.812262E-2],"categories":[],"categories_nodes":[],"categories_segments":[],"categories_sizes":[],"default_left":[0,0,0,0,0,0,0,0,0,0,0,0,0,0,0,0,0,0,0,0,0,0,0,0,0,0,0,0,0,0,0,0,0,0,0],"id":21,"left_children":[1,3,5,7,9,11,13,15,-1,17,19,-1,21,23,-1,25,27,29,31,-1,-1,-1,33,-1,-1,-1,-1,-1,-1,-1,-1,-1,-1,-1,-1],"loss_changes":[4.9168682E1,1.1193374E1,1.032486E0,1.0632663E1,6.9257154E0,1.3395119E-1,4.701538E-1,9.273374E0,0E0,2.2360668E0,3.8785195E-1,0E0,1.441534E0,5.5301487E-2,0E0,8.087719E0,1.0151571E1,1.1034648E0,7.147751E-1,0E0,0E0,0E0,2.7527142E-1,0E0,0E0,0E0,0E0,0E0,0E0,0E0,0E0,0E0,0E0,0E0,0E0],"parents":[2147483647,0,0,1,1,2,2,3,3,4,4,5,5,6,6,7,7,9,9,10,10,12,12,13,13,15,15,16,16,17,17,18,18,22,22],"right_children":[2,4,6,8,10,12,14,16,-1,18,20,-1,22,24,-1,26,28,30,32,-1,-1,-1,34,-1,-1,-1,-1,-1,-1,-1,-1,-1,-1,-1,-1],"split_conditions":[1E0,1E0,1E0,2E0,2.1E2,3.7E1,4.7E1,2.3E1,1.3149437E-1,7.3E1,3.45E2,8.96112E-2,4E1,4.3E1,1.06222264E-1,1.1E1,6E0,2E0,5E0,2.0556081E-2,9.414593E-2,-2.876441E-2,7.8E1,5.2552547E-2,1.1404441E-2,-7.468545E-2,1.6691836E-2,-6.852834E-3,2.8951405E-2,-8.9486234E-2,-2.5880128E-2,-1.1452713E-1,-3.5570618E-2,4.799922E-2,7.812262E-2],"split_indices":[10,6,5,5,0,0,0,0,0,0,0,0,0,0,0,0,9,9,9,0,0,0,0,0,0,0,0,0,0,0,0,0,0,0,0],"split_type":[0,0,0,0,0,0,0,0,0,0,0,0,0,0,0,0,0,0,0,0,0,0,0,0,0,0,0,0,0,0,0,0,0,0,0],"sum_hessian":[2.0492422E3,1.9825679E3,6.667447E1,1.9498213E3,3.274649E1,3.7230877E1,2.9443588E1,1.9448381E3,4.9831724E0,2.9367107E1,3.3793843E0,7.9274416E0,2.9303436E1,3.5070639E0,2.5936525E1,3.1030487E2,1.6345333E3,1.5167231E1,1.4199877E1,2.1636612E0,1.2157229E0,1.197418E0,2.8106018E1,2.3944588E0,1.1126051E0,9.031044E0,3.0127383E2,1.5520677E3,8.246551E1,3.2134373E0,1.1953794E1,1.1662962E1,2.5369146E0,1.4352805E1,1.3753214E1],"tree_param":{"num_deleted":"0","num_feature":"12","num_nodes":"35","size_leaf_vector":"1"}},{"base_weights":[2.5357415E-3,-2.3544485E-2,8.1404257E-1,-2.8695462E-2,1.016848E0,6.563404E-1,9.8889697E-1,9.402848E-1,-3.4136962E-2,7.5784227E-4,1.2139167E0,8.708411E-2,5.7160085E-1,1.5797233E-2,1.0168809E-1,3.4683898E-2,1.0127323E-1,-2.4925476E-2,-5.8654547E-1,-1.426985E-2,1.4379533E-1,-2.6861796E-2,6.1827374E-1,-3.978545E-3,2.587736E-2,-7.358181E-2,5.749638E-2,4.51005E-2,7.519757E-2],"categories":[],"categories_nodes":[],"categories_segments":[],"categories_sizes":[],"default_left":[0,0,0,0,0,0,0,0,0,0,0,0,0,0,0,0,0,0,0,0,0,0,0,0,0,0,0,0,0],"id":22,"left_children":[1,3,5,7,9,11,13,15,17,-1,19,-1,21,-1,-1,-1,-1,23,25,-1,-1,-1,27,-1,-1,-1,-1,-1,-1],"loss_changes":[4.321406E1,1.0631265E1,1.1040878E0,1.0417129E1,1.9348087E0,1.6388988E-1,4.9451065E-1,1.23129845E-1,9.956549E0,0E0,2.688631E0,0E0,1.3034687E0,0E0,0E0,0E0,0E0,8.140192E0,5.9878206E0,0E0,0E0,0E0,2.8213692E-1,0E0,0E0,0E0,0E0,0E0,0E0],"parents":[2147483647,0,0,1,1,2,2,3,3,4,4,5,5,6,6,7,7,8,8,10,10,12,12,17,17,18,18,22,22],"right_children":[2,4,6,8,10,12,14,16,18,-1,20,-1,22,-1,-1,-1,-1,24,26,-1,-1,-1,28,-1,-1,-1,-1,-1,-1],"split_conditions":[1E0,1E0,1E0,1E0,5.5E1,3.7E1,3.6E1,1.2E1,1E0,7.5784227E-4,3E0,8.708411E-2,4E1,1.5797233E-2,1.0168809E-1,3.4683898E-2,1.0127323E-1,9.7E1,2.1E2,-1.426985E-2,1.4379533E-1,-2.6861796E-2,7.8E1,-3.978545E-3,2.587736E-2,-7.358181E-2,5.749638E-2,4.51005E-2,7.519757E-2],"split_indices":[10,4,5,9,0,0,0,0,6,0,9,0,0,0,0,0,0,0,0,0,0,0,0,0,0,0,0,0,0],"split_type":[0,0,0,0,0,0,0,0,0,0,0,0,0,0,0,0,0,0,0,0,0,0,0,0,0,0,0,0,0],"sum_hessian":[2.0399336E3,1.9773563E3,6.257734E1,1.9685823E3,8.774021E0,3.540185E1,2.7175488E1,1.0033847E1,1.9585485E3,1.6029766E0,7.1710443E0,7.3981886E0,2.8003664E1,1.101901E0,2.6073586E1,1.7213174E0,8.31253E0,1.927453E3,3.109542E1,1.0678599E0,6.103184E0,1.2234478E0,2.6780216E1,1.8323362E3,9.511683E1,2.7879017E1,3.2164035E0,1.3839467E1,1.2940749E1],"tree_param":{"num_deleted":"0","num_feature":"12","num_nodes":"29","size_leaf_vector":"1"}},{"base_weights":[2.64984E-3,-2.111776E-2,7.873482E-1,-2.4802389E-2,1.2398242E-1,6.2638146E-1,9.71697E-1,5.2864883E-2,-8.991579E-2,9.069844E-2,5.5414003E-1,3.9081284E-1,1.0363312E-1,9.685504E-2,-7.06271E-1,-1.5607342E-1,2.3586592E-1,8.521767E-2,6.017895E-1,4.7728384E-1,5.9835818E-3,-6.992507E-2,1.0595574E-2,-8.726431E-2,6.980805E-2,-3.080839E-2,-6.8450854E-3,-1.0991762E-2,7.72222E-2,2.4761051E-2,-1.0312612E-2,4.553491E-2,7.231158E-2,1.5055058E-2,5.7496812E-2],"categories":[],"categories_nodes":[],"categories_segments":[],"categories_sizes":[],"default_left":[0,0,0,0,0,0,0,0,0,0,0,0,0,0,0,0,0,0,0,0,0,0,0,0,0,0,0,0,0,0,0,0,0,0,0],"id":23,"left_children":[1,3,5,7,-1,9,11,13,15,-1,17,19,-1,21,23,25,27,29,31,33,-1,-1,-1,-1,-1,-1,-1,-1,-1,-1,-1,-1,-1,-1,-1],"loss_changes":[3.790829E1,9.197173E0,1.1644974E0,9.95809E0,0E0,2.010994E-1,5.7266426E-1,3.0062843E1,2.3119457E1,0E0,6.229944E-1,9.20102E-2,0E0,6.2314854E0,1.2131952E1,1.1843967E1,3.368596E1,1.4630473E-1,1.5450287E-1,1.5469134E-2,0E0,0E0,0E0,0E0,0E0,0E0,0E0,0E0,0E0,0E0,0E0,0E0,0E0,0E0,0E0],"parents":[2147483647,0,0,1,1,2,2,3,3,5,5,6,6,7,7,8,8,10,10,11,11,13,13,14,14,15,15,16,16,17,17,18,18,19,19],"right_children":[2,4,6,8,-1,10,12,14,16,-1,18,20,-1,22,24,26,28,30,32,34,-1,-1,-1,-1,-1,-1,-1,-1,-1,-1,-1,-1,-1,-1,-1],"split_conditions":[1E0,2E0,1E0,3.5E1,1.2398242E-1,3.1E1,4.7E1,1E0,1E0,9.069844E-2,3.8E1,4.3E1,1.0363312E-1,1.1E1,3.3E1,3E0,7.8E1,3.5E1,7.8E1,3.6E1,5.9835818E-3,-6.992507E-2,1.0595574E-2,-8.726431E-2,6.980805E-2,-3.080839E-2,-6.8450854E-3,-1.0991762E-2,7.72222E-2,2.4761051E-2,-1.0312612E-2,4.553491E-2,7.231158E-2,1.5055058E-2,5.7496812E-2],"split_indices":[10,5,5,0,0,0,0,5,5,0,0,0,0,0,0,9,0,0,0,0,0,0,0,0,0,0,0,0,0,0,0,0,0,0,0],"split_type":[0,0,0,0,0,0,0,0,0,0,0,0,0,0,0,0,0,0,0,0,0,0,0,0,0,0,0,0,0,0,0,0,0,0,0],"sum_hessian":[2.0306814E3,1.9719271E3,5.8754284E1,1.9671592E3,4.7679534E0,3.371412E1,2.5040165E1,8.9718494E2,1.0699741E3,4.5368834E0,2.9177237E1,3.212764E0,2.1827402E1,8.488675E2,4.831748E1,8.8980023E2,1.801739E2,2.9485672E0,2.6228668E1,2.1967869E0,1.0159771E0,8.737069E0,8.4013043E2,4.353817E1,4.7793074E0,3.2443823E2,5.6536206E2,1.1003225E2,7.0141655E1,1.4143878E0,1.5341794E0,1.403798E1,1.2190689E1,1.0904979E0,1.1062891E0],"tree_param":{"num_deleted":"0","num_feature":"12","num_nodes":"35","size_leaf_vector":"1"}},{"base_weights":[2.5725805E-3,-1.9174855E-2,7.61616E-1,-1.0700537E-2,-5.4715955E-1,5.9776497E-1,9.554996E-1,-1.5109541E-2,9.232452E-1,-6.8749213E-1,5.0878435E-1,8.287003E-2,5.097205E-1,3.7677985E-1,1.0242977E-1,9.175752E-1,-2.0124294E-2,1.5759808E-1,1.237081E0,-3.53067E-1,-9.9395823E-1,8.1298664E-2,7.888219E-3,-2.6371295E-2,5.5755115E-1,4.6176723E-1,5.696698E-3,3.3540644E-2,9.924545E-2,-2.8307075E-3,4.0097047E-2,-4.684479E-2,8.6136095E-2,1.4328136E-1,1.3387783E-2,-8.45677E-2,-1.6737344E-2,-1.1111611E-1,-3.114365E-2,3.942394E-2,6.9459476E-2,1.4347925E-2,5.5918884E-2],"categories":[],"categories_nodes":[],"categories_segments":[],"categories_sizes":[],"default_left":[0,0,0,0,0,0,0,0,0,0,0,0,0,0,0,0,0,0,0,0,0,0,0,0,0,0,0,0,0,0,0,0,0,0,0,0,0,0,0,0,0,0,0],"id":24,"left_children":[1,3,5,7,9,11,13,15,17,19,21,-1,23,25,-1,27,29,31,33,35,37,-1,-1,-1,39,41,-1,-1,-1,-1,-1,-1,-1,-1,-1,-1,-1,-1,-1,-1,-1,-1,-1],"loss_changes":[3.338107E1,8.790629E0,1.2181587E0,7.9857955E0,4.9488707E0,2.5258732E-1,5.746784E-1,9.035367E0,1.9946618E0,2.500434E0,4.871627E-1,0E0,1.1322675E0,8.636564E-2,0E0,1.1749649E-1,6.622036E0,2.075647E0,1.1722803E0,1.2172669E0,7.7116776E-1,0E0,0E0,0E0,2.946906E-1,1.6957223E-2,0E0,0E0,0E0,0E0,0E0,0E0,0E0,0E0,0E0,0E0,0E0,0E0,0E0,0E0,0E0,0E0,0E0],"parents":[2147483647,0,0,1,1,2,2,3,3,4,4,5,5,6,6,7,7,8,8,9,9,10,10,12,12,13,13,15,15,16,16,17,17,18,18,19,19,20,20,24,24,25,25],"right_children":[2,4,6,8,10,12,14,16,18,20,22,-1,24,26,-1,28,30,32,34,36,38,-1,-1,-1,40,42,-1,-1,-1,-1,-1,-1,-1,-1,-1,-1,-1,-1,-1,-1,-1,-1,-1],"split_conditions":[1E0,1E0,1E0,1E0,2.1E2,3.7E1,4.7E1,1E0,1E0,7.3E1,1.2E1,8.287003E-2,4E1,4.3E1,1.0242977E-1,1.2E1,7E0,6.2E1,1.04E2,2E0,5E0,8.1298664E-2,7.888219E-3,-2.6371295E-2,7.8E1,3.6E1,5.696698E-3,3.3540644E-2,9.924545E-2,-2.8307075E-3,4.0097047E-2,-4.684479E-2,8.6136095E-2,1.4328136E-1,1.3387783E-2,-8.45677E-2,-1.6737344E-2,-1.1111611E-1,-3.114365E-2,3.942394E-2,6.9459476E-2,1.4347925E-2,5.5918884E-2],"split_indices":[10,6,5,4,0,0,0,9,5,0,6,0,0,0,0,0,9,0,0,9,9,0,0,0,0,0,0,0,0,0,0,0,0,0,0,0,0,0,0,0,0,0,0],"split_type":[0,0,0,0,0,0,0,0,0,0,0,0,0,0,0,0,0,0,0,0,0,0,0,0,0,0,0,0,0,0,0,0,0,0,0,0,0,0,0,0,0,0,0],"sum_hessian":[2.0203225E3,1.9649978E3,5.532463E1,1.9349614E3,3.0036463E1,3.219757E1,2.3127056E1,1.9268489E3,8.112515E0,2.682095E1,3.2155128E0,6.5651865E0,2.5632385E1,3.145358E0,1.9981699E1,9.331464E0,1.9175175E3,2.795257E0,5.317258E0,1.3854528E1,1.2966422E1,1.3612114E0,1.8543012E0,1.2299721E0,2.4402414E1,2.134316E0,1.0110421E0,1.6878825E0,7.6435814E0,1.8818811E3,3.5636246E1,1.656263E0,1.1389942E0,4.2622633E0,1.0549947E0,2.8198483E0,1.1034679E1,1.0530157E1,2.4362648E0,1.2902973E1,1.149944E1,1.0796705E0,1.0546455E0],"tree_param":{"num_deleted":"0","num_feature":"12","num_nodes":"43","size_leaf_vector":"1"}},{"base_weights":[2.6583967E-3,-1.719815E-2,7.357088E-1,-2.0544672E-2,1.15822114E-1,5.689944E-1,9.395665E-1,4.943793E-2,-7.979428E-2,7.195926E-1,4.4034854E-1,3.6332923E-1,1.0128148E-1,8.892163E-2,-6.6524875E-1,-1.403628E-1,2.162533E-1,5.022023E-1,9.176918E-2,8.735754E-2,6.663855E-1,4.4683167E-1,5.423583E-3,8.633634E-2,8.074737E-3,-8.477153E-2,5.1807016E-2,-2.2267139E-2,-9.137708E-5,-6.938368E-3,7.5051084E-2,8.545487E-2,5.7819015E-3,-4.3075904E-2,5.2420575E-2,7.118911E-2,1.4244273E-2,1.3674187E-2,5.439606E-2],"categories":[],"categories_nodes":[],"categories_segments":[],"categories_sizes":[],"default_left":[0,0,0,0,0,0,0,0,0,0,0,0,0,0,0,0,0,0,0,0,0,0,0,0,0,0,0,0,0,0,0,0,0,0,0,0,0,0,0],"id":25,"left_children":[1,3,5,7,-1,9,11,13,15,17,19,21,-1,23,25,27,29,31,-1,33,35,37,-1,-1,-1,-1,-1,-1,-1,-1,-1,-1,-1,-1,-1,-1,-1,-1,-1],"loss_changes":[2.9324358E1,7.739917E0,1.2711239E0,8.118625E0,0E0,2.9851818E-1,5.7611275E-1,2.5395437E1,1.9040277E1,1.01410866E-1,1.514225E0,8.11224E-2,0E0,5.3221936E0,1.0614084E1,1.0108423E1,2.759E1,1.271138E0,0E0,2.227572E0,1.814456E-1,1.8252134E-2,0E0,0E0,0E0,0E0,0E0,0E0,0E0,0E0,0E0,0E0,0E0,0E0,0E0,0E0,0E0,0E0,0E0],"parents":[2147483647,0,0,1,1,2,2,3,3,5,5,6,6,7,7,8,8,9,9,10,10,11,11,13,13,14,14,15,15,16,16,17,17,19,19,20,20,21,21],"right_children":[2,4,6,8,-1,10,12,14,16,18,20,22,-1,24,26,28,30,32,-1,34,36,38,-1,-1,-1,-1,-1,-1,-1,-1,-1,-1,-1,-1,-1,-1,-1,-1,-1],"split_conditions":[1E0,2E0,1E0,3.5E1,1.15822114E-1,5.1E1,4.7E1,1E0,1E0,3E0,7.8E1,4.3E1,1.0128148E-1,1E0,3.2E1,4E0,8.3E1,3.1E1,9.176918E-2,4E0,1.1E1,3.6E1,5.423583E-3,8.633634E-2,8.074737E-3,-8.477153E-2,5.1807016E-2,-2.2267139E-2,-9.137708E-5,-6.938368E-3,7.5051084E-2,8.545487E-2,5.7819015E-3,-4.3075904E-2,5.2420575E-2,7.118911E-2,1.4244273E-2,1.3674187E-2,5.439606E-2],"split_indices":[10,5,5,0,0,0,0,5,5,9,0,0,0,9,0,9,0,0,0,9,9,0,0,0,0,0,0,0,0,0,0,0,0,0,0,0,0,0,0],"split_type":[0,0,0,0,0,0,0,0,0,0,0,0,0,0,0,0,0,0,0,0,0,0,0,0,0,0,0,0,0,0,0,0,0,0,0,0,0,0,0],"sum_hessian":[2.0127406E3,1.960609E3,5.2131577E1,1.9560226E3,4.586448E0,3.076399E1,2.1367584E1,8.968614E2,1.0591611E3,1.2056532E1,1.870746E1,3.0820017E0,1.8285583E1,8.50737E2,4.6124382E1,8.797073E2,1.7945387E2,7.4338613E0,4.6226707E0,7.8441315E0,1.0863328E1,2.0756414E0,1.0063604E0,7.7930326E0,8.42944E2,4.020797E1,5.916413E0,5.528158E2,3.2689154E2,1.1750226E2,6.195162E1,3.631493E0,3.802368E0,3.5946705E0,4.2494607E0,9.665167E0,1.1981612E0,1.0693899E0,1.0062515E0],"tree_param":{"num_deleted":"0","num_feature":"12","num_nodes":"39","size_leaf_vector":"1"}},{"base_weights":[2.7149688E-3,-1.5520688E-2,7.110678E-1,-7.512796E-3,-5.315431E-1,5.4329765E-1,9.237792E-1,-1.1514223E-2,8.6301583E-1,-6.255212E-1,7.727953E-2,6.9540983E-1,4.15546E-1,3.504372E-1,1.0017543E-1,8.7836516E-1,-1.5793834E-2,1.564099E-1,1.1560231E0,-3.2207403E-1,-8.7561315E-1,4.7938633E-1,8.9717016E-2,8.0948144E-2,6.392898E-1,4.32456E-2,5.163546E-3,2.7934646E-2,9.6202165E-2,-2.7022564E-3,2.3022978E-2,-5.8474686E-2,7.059364E-2,1.3517651E-1,2.4740905E-2,-8.200482E-2,-1.417231E-2,-1.0136091E-1,2.8636917E-3,8.353319E-2,5.3441348E-3,-3.8610682E-2,4.991005E-2,6.8487376E-2,1.3558826E-2],"categories":[],"categories_nodes":[],"categories_segments":[],"categories_sizes":[],"default_left":[0,0,0,0,0,0,0,0,0,0,0,0,0,0,0,0,0,0,0,0,0,0,0,0,0,0,0,0,0,0,0,0,0,0,0,0,0,0,0,0,0,0,0,0,0],"id":26,"left_children":[1,3,5,7,9,11,13,15,17,19,-1,21,23,25,-1,27,29,31,33,35,37,39,-1,41,43,-1,-1,-1,-1,-1,-1,-1,-1,-1,-1,-1,-1,-1,-1,-1,-1,-1,-1,-1,-1],"loss_changes":[2.588897E1,8.070662E0,1.2931843E0,6.716133E0,4.1419344E0,3.0467224E-1,5.7668877E-1,7.3159375E0,1.6456985E0,1.8727283E0,0E0,1.1298418E-1,1.377327E0,7.624927E-2,0E0,1.9202232E-1,5.2804317E0,1.9370106E0,7.468443E-1,1.177942E0,1.8986549E0,1.1932558E0,0E0,1.910266E0,1.6646719E-1,0E0,0E0,0E0,0E0,0E0,0E0,0E0,0E0,0E0,0E0,0E0,0E0,0E0,0E0,0E0,0E0,0E0,0E0,0E0,0E0],"parents":[2147483647,0,0,1,1,2,2,3,3,4,4,5,5,6,6,7,7,8,8,9,9,11,11,12,12,13,13,15,15,16,16,17,17,18,18,19,19,20,20,21,21,23,23,24,24],"right_children":[2,4,6,8,10,12,14,16,18,20,-1,22,24,26,-1,28,30,32,34,36,38,40,-1,42,44,-1,-1,-1,-1,-1,-1,-1,-1,-1,-1,-1,-1,-1,-1,-1,-1,-1,-1,-1,-1],"split_conditions":[1E0,1E0,1E0,1E0,1.7E1,5.1E1,4.7E1,1E0,1E0,7.3E1,7.727953E-2,3E0,7.8E1,4.3E1,1.0017543E-1,1.2E1,6E0,5.5E1,1.01E2,2E0,2.1E2,3.1E1,8.9717016E-2,4E0,1.1E1,4.32456E-2,5.163546E-3,2.7934646E-2,9.6202165E-2,-2.7022564E-3,2.3022978E-2,-5.8474686E-2,7.059364E-2,1.3517651E-1,2.4740905E-2,-8.200482E-2,-1.417231E-2,-1.0136091E-1,2.8636917E-3,8.353319E-2,5.3441348E-3,-3.8610682E-2,4.991005E-2,6.8487376E-2,1.3558826E-2],"split_indices":[10,6,5,4,6,0,0,9,5,0,0,9,0,0,0,0,9,0,0,9,0,0,0,9,9,0,0,0,0,0,0,0,0,0,0,0,0,0,0,0,0,0,0,0,0],"split_type":[0,0,0,0,0,0,0,0,0,0,0,0,0,0,0,0,0,0,0,0,0,0,0,0,0,0,0,0,0,0,0,0,0,0,0,0,0,0,0,0,0,0,0,0,0],"sum_hessian":[2.002358E3,1.9530571E3,4.9300922E1,1.9242108E3,2.8846298E1,2.9549076E1,1.9751846E1,1.9163888E3,7.822E0,2.739305E1,1.4532487E0,1.1460163E1,1.8088913E1,3.022437E0,1.6729408E1,8.194643E0,1.9081942E3,2.7423806E0,5.0796194E0,1.3409979E1,1.3983069E1,7.164836E0,4.2953277E0,7.794464E0,1.0294448E1,2.0205193E0,1.0019178E0,1.5359251E0,6.658718E0,1.8257552E3,8.243887E1,1.1403189E0,1.6020617E0,3.7780051E0,1.301614E0,2.622348E0,1.0787631E1,1.20267515E1,1.9563185E0,3.379551E0,3.785285E0,3.7181334E0,4.0763307E0,9.110303E0,1.1841451E0],"tree_param":{"num_deleted":"0","num_feature":"12","num_nodes":"45","size_leaf_vector":"1"}},{"base_weights":[2.8122773E-3,-1.390438E-2,6.8644625E-1,-6.5938337E-3,-5.015658E-1,5.184583E-1,9.07516E-1,-9.673273E-3,1.08578995E-1,-5.9289616E-1,7.3595725E-2,7.654661E-2,4.3001893E-1,3.3356562E-2,9.910035E-2,1.1073644E-1,-3.296746E-2,-3.0271006E-1,-8.3968824E-1,-3.0152554E-2,4.8106548E-1,-6.659026E-2,1.3460035E-2,-4.6471306E-3,2.1153308E-2,-7.980993E-2,-1.3000508E-2,-1.0073071E-1,-6.7549064E-3,3.2961216E-2,6.203155E-2],"categories":[],"categories_nodes":[],"categories_segments":[],"categories_sizes":[],"default_left":[0,0,0,0,0,0,0,0,0,0,0,0,0,0,0,0,0,0,0,0,0,0,0,0,0,0,0,0,0,0,0],"id":27,"left_children":[1,3,5,7,9,11,13,15,-1,17,-1,-1,19,-1,-1,21,23,25,27,-1,29,-1,-1,-1,-1,-1,-1,-1,-1,-1,-1],"loss_changes":[2.283028E1,6.9493556E0,1.3003254E0,6.4774117E0,3.690361E0,3.1368446E-1,5.921583E-1,5.3833838E0,0E0,1.7056303E0,0E0,0E0,1.0394487E0,0E0,0E0,5.856127E0,5.3185534E0,1.1060804E0,1.7730122E0,0E0,2.7583694E-1,0E0,0E0,0E0,0E0,0E0,0E0,0E0,0E0,0E0,0E0],"parents":[2147483647,0,0,1,1,2,2,3,3,4,4,5,5,6,6,7,7,9,9,12,12,15,15,16,16,17,17,18,18,20,20],"right_children":[2,4,6,8,10,12,14,16,-1,18,-1,-1,20,-1,-1,22,24,26,28,-1,30,-1,-1,-1,-1,-1,-1,-1,-1,-1,-1],"split_conditions":[1E0,1E0,1E0,2E0,1.7E1,3.7E1,4.7E1,2.3E1,1.08578995E-1,7.3E1,7.3595725E-2,7.654661E-2,4E1,3.3356562E-2,9.910035E-2,1.1E1,6E0,2E0,1.69E2,-3.0152554E-2,4E0,-6.659026E-2,1.3460035E-2,-4.6471306E-3,2.1153308E-2,-7.980993E-2,-1.3000508E-2,-1.0073071E-1,-6.7549064E-3,3.2961216E-2,6.203155E-2],"split_indices":[10,6,5,5,6,0,0,0,0,0,0,0,0,0,0,0,9,9,0,0,9,0,0,0,0,0,0,0,0,0,0],"split_type":[0,0,0,0,0,0,0,0,0,0,0,0,0,0,0,0,0,0,0,0,0,0,0,0,0,0,0,0,0,0,0],"sum_hessian":[1.995901E3,1.9492172E3,4.6683846E1,1.9214265E3,2.7790634E1,2.8427443E1,1.8256405E1,1.9170135E3,4.4129333E0,2.636572E1,1.4249129E0,5.4765096E0,2.2950933E1,2.9527276E0,1.5303677E1,3.1013654E2,1.6068771E3,1.3140858E1,1.3224863E1,1.1769714E0,2.1773962E1,8.443487E0,3.0169305E2,1.5235413E3,8.3335754E1,2.4608767E0,1.0679981E1,1.0615783E1,2.6090806E0,1.2042814E1,9.731148E0],"tree_param":{"num_deleted":"0","num_feature":"12","num_nodes":"31","size_leaf_vector":"1"}},{"base_weights":[2.6667516E-3,-1.2598223E-2,6.6035444E-1,-1.6443301E-2,8.273873E-1,4.913459E-1,8.910183E-1,8.556443E-1,-2.0323256E-2,9.425087E-2,1.0662609E0,6.517168E-1,3.6078763E-1,3.150649E-1,9.804606E-2,2.700091E-2,9.422102E-2,-1.3491039E-2,-4.9285638E-1,3.267021E-2,-1.5173733E-2,1.2231518E-1,1.319538E-2,4.2784846E-1,8.683102E-2,3.5064913E-2,5.9136623E-1,9.439455E-3,3.5948746E-2,-1.9050178E-3,4.1047197E-2,-6.1410524E-2,3.903072E-2,7.990413E-2,2.1893498E-3,-3.803223E-2,4.439778E-2,6.396996E-2,9.914746E-3],"categories":[],"categories_nodes":[],"categories_segments":[],"categories_sizes":[],"default_left":[0,0,0,0,0,0,0,0,0,0,0,0,0,0,0,0,0,0,0,0,0,0,0,0,0,0,0,0,0,0,0,0,0,0,0,0,0,0,0],"id":28,"left_children":[1,3,5,7,9,11,13,15,17,19,21,23,25,27,-1,-1,-1,29,31,-1,-1,-1,-1,33,-1,35,37,-1,-1,-1,-1,-1,-1,-1,-1,-1,-1,-1,-1],"loss_changes":[1.9995785E1,6.301032E0,1.3234558E0,6.577619E0,1.4563727E0,3.574791E-1,6.119261E-1,1.8212748E-1,6.228086E0,2.372207E-1,8.072667E-1,1.8424082E-1,1.319284E0,4.0645003E-3,0E0,0E0,0E0,4.496924E0,3.1840687E0,0E0,0E0,0E0,0E0,1.12885E0,0E0,1.6055557E0,1.836114E-1,0E0,0E0,0E0,0E0,0E0,0E0,0E0,0E0,0E0,0E0,0E0,0E0],"parents":[2147483647,0,0,1,1,2,2,3,3,4,4,5,5,6,6,7,7,8,8,9,9,10,10,11,11,12,12,13,13,17,17,18,18,23,23,25,25,26,26],"right_children":[2,4,6,8,10,12,14,16,18,20,22,24,26,28,-1,-1,-1,30,32,-1,-1,-1,-1,34,-1,36,38,-1,-1,-1,-1,-1,-1,-1,-1,-1,-1,-1,-1],"split_conditions":[1E0,1E0,1E0,1E0,6.2E1,5.1E1,4.7E1,1.2E1,1E0,3E0,1.26E2,3E0,7.8E1,3.6E1,9.804606E-2,2.700091E-2,9.422102E-2,1.4E2,2.1E2,3.267021E-2,-1.5173733E-2,1.2231518E-1,1.319538E-2,3.1E1,8.683102E-2,4E0,1.1E1,9.439455E-3,3.5948746E-2,-1.9050178E-3,4.1047197E-2,-6.1410524E-2,3.903072E-2,7.990413E-2,2.1893498E-3,-3.803223E-2,4.439778E-2,6.396996E-2,9.914746E-3],"split_indices":[10,4,5,9,0,0,0,0,6,9,0,9,0,0,0,0,0,0,0,0,0,0,0,0,0,9,9,0,0,0,0,0,0,0,0,0,0,0,0],"split_type":[0,0,0,0,0,0,0,0,0,0,0,0,0,0,0,0,0,0,0,0,0,0,0,0,0,0,0,0,0,0,0,0,0,0,0,0,0,0,0],"sum_hessian":[1.9898656E3,1.9456869E3,4.417868E1,1.937797E3,7.889942E0,2.7303452E1,1.6875227E1,7.610784E0,1.9301862E3,2.2816885E0,5.6082535E0,1.0461422E1,1.684203E1,2.8762813E0,1.3998946E1,1.5105733E0,6.1002107E0,1.9036898E3,2.6496336E1,1.004421E0,1.2772676E0,4.537203E0,1.0710508E0,6.607421E0,3.8540008E0,7.4582877E0,9.383742E0,1.0056428E0,1.8706385E0,1.8799938E3,2.3696018E1,2.3565676E1,2.930661E0,2.9456801E0,3.6617408E0,3.7345386E0,3.7237494E0,8.271862E0,1.1118796E0],"tree_param":{"num_deleted":"0","num_feature":"12","num_nodes":"39","size_leaf_vector":"1"}},{"base_weights":[2.8054228E-3,-1.1207132E-2,6.362161E-1,4.7188953E-2,-6.1049644E-2,4.680531E-1,8.747344E-1,8.24802E-2,-6.232197E-1,-1.2237812E-1,2.3168713E-1,6.2906396E-1,3.3926564E-1,3.0037656E-2,9.700358E-2,-6.244399E-2,9.007666E-2,-7.9082084E-1,5.7317395E-2,-2.5374833E-1,-4.8822414E-2,-5.2719634E-2,6.5899235E-1,4.0789285E-1,8.489833E-2,3.2997075E-2,5.6523114E-1,1.5427679E-2,-2.8963963E-4,-8.7489046E-2,5.4975826E-2,-2.9264977E-2,3.2406833E-2,3.292818E-3,-4.8342343E-2,-1.6850878E-2,3.8968425E-2,-2.4564361E-2,9.492502E-2,7.807082E-2,2.0202275E-3,3.0506134E-2,-5.3008284E-2,6.1334133E-2,9.436129E-3],"categories":[],"categories_nodes":[],"categories_segments":[],"categories_sizes":[],"default_left":[0,0,0,0,0,0,0,0,0,0,0,0,0,0,0,0,0,0,0,0,0,0,0,0,0,0,0,0,0,0,0,0,0,0,0,0,0,0,0,0,0,0,0,0,0],"id":29,"left_children":[1,3,5,7,9,11,13,15,17,19,21,23,25,-1,-1,-1,27,29,-1,31,33,35,37,39,-1,41,43,-1,-1,-1,-1,-1,-1,-1,-1,-1,-1,-1,-1,-1,-1,-1,-1,-1,-1],"loss_changes":[1.7624233E1,5.6578765E0,1.3143806E0,2.1232414E1,1.8854883E1,3.5385704E-1,6.1835957E-1,4.628099E0,9.4538555E0,8.371889E0,2.2151089E1,1.8810129E-1,1.1834642E0,0E0,0E0,0E0,5.0332704E0,4.9655685E0,0E0,7.089966E0,1.9822056E1,5.7101045E0,1.9348026E1,1.0541699E0,0E0,1.45415E0,1.6715288E-1,0E0,0E0,0E0,0E0,0E0,0E0,0E0,0E0,0E0,0E0,0E0,0E0,0E0,0E0,0E0,0E0,0E0,0E0],"parents":[2147483647,0,0,1,1,2,2,3,3,4,4,5,5,6,6,7,7,8,8,9,9,10,10,11,11,12,12,16,16,17,17,19,19,20,20,21,21,22,22,23,23,25,25,26,26],"right_children":[2,4,6,8,10,12,14,16,18,20,22,24,26,-1,-1,-1,28,30,-1,32,34,36,38,40,-1,42,44,-1,-1,-1,-1,-1,-1,-1,-1,-1,-1,-1,-1,-1,-1,-1,-1,-1,-1],"split_conditions":[1E0,3.5E1,1E0,1E0,1E0,5.1E1,4.7E1,1.1E1,3.3E1,3E0,7.8E1,3E0,7.8E1,3.0037656E-2,9.700358E-2,-6.244399E-2,2E0,2E0,5.7317395E-2,8.2E1,8.4E1,3E0,2E0,3.1E1,8.489833E-2,7E1,1.1E1,1.5427679E-2,-2.8963963E-4,-8.7489046E-2,5.4975826E-2,-2.9264977E-2,3.2406833E-2,3.292818E-3,-4.8342343E-2,-1.6850878E-2,3.8968425E-2,-2.4564361E-2,9.492502E-2,7.807082E-2,2.0202275E-3,3.0506134E-2,-5.3008284E-2,6.1334133E-2,9.436129E-3],"split_indices":[10,0,5,5,5,0,0,0,0,9,0,9,0,0,0,0,9,9,0,0,0,9,9,0,0,0,9,0,0,0,0,0,0,0,0,0,0,0,0,0,0,0,0,0,0],"split_type":[0,0,0,0,0,0,0,0,0,0,0,0,0,0,0,0,0,0,0,0,0,0,0,0,0,0,0,0,0,0,0,0,0,0,0,0,0,0,0,0,0,0,0,0,0],"sum_hessian":[1.9838688E3,1.9418918E3,4.197697E1,8.942413E2,1.0476505E3,2.6356874E1,1.5620096E1,8.5035443E2,4.3886868E1,8.6666565E2,1.8098486E2,9.986802E0,1.6370071E1,2.8138108E0,1.2806285E1,8.177338E0,8.4217706E2,3.8791603E1,5.0952654E0,3.1019998E2,5.564657E2,1.0918794E2,7.179693E1,6.4025483E0,3.5842543E0,7.4366417E0,8.933431E0,4.9778516E2,3.4439194E2,3.682936E1,1.9622425E0,2.9109552E2,1.9104462E1,4.69142E2,8.732369E1,8.702915E1,2.215879E1,1.7477901E1,5.4319027E1,2.7471056E0,3.6554427E0,5.322963E0,2.1136782E0,7.830766E0,1.1026642E0],"tree_param":{"num_deleted":"0","num_feature":"12","num_nodes":"45","size_leaf_vector":"1"}},{"base_weights":[2.6061821E-3,-1.02633955E-2,6.116794E-1,-1.2953797E-2,1.0192931E-1,4.447527E-1,8.5783637E-1,-6.839515E-3,-4.4895634E-1,6.069844E-1,3.1731826E-1,2.8341388E-2,9.596482E-2,7.248965E-1,-1.0035694E-2,-5.389378E-1,7.010718E-2,3.8880903E-1,8.300169E-2,2.766864E-2,5.395397E-1,7.925313E-2,1.5301056E-2,-1.3188317E-3,8.107187E-2,-2.3355147E-2,-8.0696024E-2,7.626191E-2,1.8640639E-3,-3.5803165E-2,4.2374827E-2,5.8726944E-2,8.980489E-3],"categories":[],"categories_nodes":[],"categories_segments":[],"categories_sizes":[],"default_left":[0,0,0,0,0,0,0,0,0,0,0,0,0,0,0,0,0,0,0,0,0,0,0,0,0,0,0,0,0,0,0,0,0],"id":30,"left_children":[1,3,5,7,-1,9,11,13,15,17,19,-1,-1,21,23,25,-1,27,-1,29,31,-1,-1,-1,-1,-1,-1,-1,-1,-1,-1,-1,-1],"loss_changes":[1.5505879E1,5.379734E0,1.3004274E0,5.1509876E0,0E0,3.5460567E-1,6.324272E-1,4.468801E0,3.1430783E0,1.9060373E-1,1.0741305E0,0E0,0E0,2.0015669E-1,4.927869E0,1.8863144E0,0E0,9.839847E-1,0E0,1.4348897E0,1.51618E-1,0E0,0E0,0E0,0E0,0E0,0E0,0E0,0E0,0E0,0E0,0E0,0E0],"parents":[2147483647,0,0,1,1,2,2,3,3,5,5,6,6,7,7,8,8,9,9,10,10,13,13,14,14,15,15,17,17,19,19,20,20],"right_children":[2,4,6,8,-1,10,12,14,16,18,20,-1,-1,22,24,26,-1,28,-1,30,32,-1,-1,-1,-1,-1,-1,-1,-1,-1,-1,-1,-1],"split_conditions":[1E0,2E0,1E0,1E0,1.0192931E-1,5.1E1,4.7E1,1E0,1.7E1,3E0,7.8E1,2.8341388E-2,9.596482E-2,2.8E1,1E0,7.3E1,7.010718E-2,3.1E1,8.300169E-2,4E0,1.1E1,7.925313E-2,1.5301056E-2,-1.3188317E-3,8.107187E-2,-2.3355147E-2,-8.0696024E-2,7.626191E-2,1.8640639E-3,-3.5803165E-2,4.2374827E-2,5.8726944E-2,8.980489E-3],"split_indices":[10,5,5,6,0,0,0,9,6,9,0,0,0,0,4,0,0,0,0,9,9,0,0,0,0,0,0,0,0,0,0,0,0],"split_type":[0,0,0,0,0,0,0,0,0,0,0,0,0,0,0,0,0,0,0,0,0,0,0,0,0,0,0,0,0,0,0,0,0],"sum_hessian":[1.9763645E3,1.9364313E3,3.99332E1,1.9323691E3,4.0621834E0,2.54688E1,1.4464402E1,1.9066469E3,2.572218E1,9.549106E0,1.5919694E1,2.7473807E0,1.1717022E1,7.3099036E0,1.899337E3,2.4348457E1,1.373723E0,6.213857E0,3.335248E0,7.3994956E0,8.520198E0,6.191802E0,1.1181017E0,1.8930494E3,6.2875147E0,1.2255664E1,1.20927925E1,2.564218E0,3.6496394E0,3.797536E0,3.6019597E0,7.4262486E0,1.0939499E0],"tree_param":{"num_deleted":"0","num_feature":"12","num_nodes":"33","size_leaf_vector":"1"}},{"base_weights":[2.69968E-3,-9.121831E-3,5.8793193E-1,-1.1601584E-2,9.622303E-2,4.2316145E-1,8.406586E-1,3.765717E-2,-6.4305246E-2,6.871156E-2,3.3643088E-1,2.6726425E-2,9.492259E-2,6.252937E-2,-4.3564326E-1,-1.17774956E-1,1.7546543E-1,-3.4970578E-2,3.9153123E-1,1.2962793E-2,-2.2241047E-3,-6.597007E-2,1.3428861E-1,-2.1789026E-2,2.5424035E-3,-8.944221E-3,6.3487284E-2,2.8551484E-2,6.5976724E-2],"categories":[],"categories_nodes":[],"categories_segments":[],"categories_sizes":[],"default_left":[0,0,0,0,0,0,0,0,0,0,0,0,0,0,0,0,0,0,0,0,0,0,0,0,0,0,0,0,0],"id":31,"left_children":[1,3,5,7,-1,9,11,13,15,-1,17,-1,-1,19,21,23,25,-1,27,-1,-1,-1,-1,-1,-1,-1,-1,-1,-1],"loss_changes":[1.3654205E1,4.671483E0,1.2715168E0,5.0150986E0,0E0,3.5645866E-1,6.432762E-1,1.17835655E1,1.198434E1,0E0,9.4142365E-1,0E0,0E0,5.404642E0,2.0804882E1,1.0953011E1,2.0813618E1,0E0,3.851955E-1,0E0,0E0,0E0,0E0,0E0,0E0,0E0,0E0,0E0,0E0],"parents":[2147483647,0,0,1,1,2,2,3,3,5,5,6,6,7,7,8,8,10,10,13,13,14,14,15,15,16,16,18,18],"right_children":[2,4,6,8,-1,10,12,14,16,-1,18,-1,-1,20,22,24,26,-1,28,-1,-1,-1,-1,-1,-1,-1,-1,-1,-1],"split_conditions":[1E0,2E0,1E0,3.8E1,9.622303E-2,3.7E1,4.7E1,1E0,1E0,6.871156E-2,4E1,2.6726425E-2,9.492259E-2,2E0,2E0,4E0,8.3E1,-3.4970578E-2,6E0,1.2962793E-2,-2.2241047E-3,-6.597007E-2,1.3428861E-1,-2.1789026E-2,2.5424035E-3,-8.944221E-3,6.3487284E-2,2.8551484E-2,6.5976724E-2],"split_indices":[10,5,5,0,0,0,0,5,5,0,0,0,0,9,9,9,0,0,9,0,0,0,0,0,0,0,0,0,0],"split_type":[0,0,0,0,0,0,0,0,0,0,0,0,0,0,0,0,0,0,0,0,0,0,0,0,0,0,0,0,0],"sum_hessian":[1.9718522E3,1.933775E3,3.807724E1,1.9298364E3,3.9386015E0,2.4668484E1,1.3408757E1,9.976665E2,9.3216986E2,4.388921E0,2.0279562E1,2.6857579E0,1.0723E1,9.486807E2,4.8985813E1,7.626132E2,1.6955664E2,1.110044E0,1.916952E1,5.292404E2,4.1944028E2,4.4063774E1,4.9220366E0,4.4851764E2,3.1409555E2,1.0805455E2,6.1502083E1,1.521889E1,3.9506285E0],"tree_param":{"num_deleted":"0","num_feature":"12","num_nodes":"29","size_leaf_vector":"1"}},{"base_weights":[2.6113824E-3,-8.222715E-3,5.626226E-1,-2.4540196E-3,-4.3074322E-1,3.9913273E-1,8.231681E-1,-4.7633876E-3,9.085084E-2,-5.1469153E-1,6.4904235E-2,5.6779087E-1,2.7079496E-1,2.5190448E-2,9.387052E-2,-7.791797E-3,6.9273007E-1,-2.0928372E-1,-7.859914E-1,3.4423912E-1,8.049581E-2,2.9617827E-2,5.330236E-1,2.67144E-3,-7.1788835E-3,-3.967829E-2,9.2918016E-2,-7.473109E-2,-3.6021923E-3,-9.549551E-2,-7.899506E-3,7.2850116E-2,-5.548675E-4,-1.8064855E-2,6.603362E-2,5.995229E-2,5.3581255E-3],"categories":[],"categories_nodes":[],"categories_segments":[],"categories_sizes":[],"default_left":[0,0,0,0,0,0,0,0,0,0,0,0,0,0,0,0,0,0,0,0,0,0,0,0,0,0,0,0,0,0,0,0,0,0,0,0,0],"id":32,"left_children":[1,3,5,7,9,11,13,15,-1,17,-1,19,21,-1,-1,23,25,27,29,31,-1,33,35,-1,-1,-1,-1,-1,-1,-1,-1,-1,-1,-1,-1,-1,-1],"loss_changes":[1.1928316E1,4.7005553E0,1.2608624E0,4.0098133E0,2.6886487E0,3.84521E-1,6.509428E-1,4.01909E0,0E0,1.8787227E0,0E0,2.4430418E-1,9.982542E-1,0E0,0E0,4.1820664E0,2.4877365E0,1.1815279E0,1.4411983E0,9.1932255E-1,0E0,1.3673704E0,2.1091342E-1,0E0,0E0,0E0,0E0,0E0,0E0,0E0,0E0,0E0,0E0,0E0,0E0,0E0,0E0],"parents":[2147483647,0,0,1,1,2,2,3,3,4,4,5,5,6,6,7,7,9,9,11,11,12,12,15,15,16,16,17,17,18,18,19,19,21,21,22,22],"right_children":[2,4,6,8,10,12,14,16,-1,18,-1,20,22,-1,-1,24,26,28,30,32,-1,34,36,-1,-1,-1,-1,-1,-1,-1,-1,-1,-1,-1,-1,-1,-1],"split_conditions":[1E0,1E0,1E0,2E0,1.7E1,5.1E1,4.7E1,9E0,9.085084E-2,7.3E1,6.4904235E-2,3E0,8.9E1,2.5190448E-2,9.387052E-2,4.6E1,7.6E1,2E0,1.69E2,3.1E1,8.049581E-2,6E0,1.1E1,2.67144E-3,-7.1788835E-3,-3.967829E-2,9.2918016E-2,-7.473109E-2,-3.6021923E-3,-9.549551E-2,-7.899506E-3,7.2850116E-2,-5.548675E-4,-1.8064855E-2,6.603362E-2,5.995229E-2,5.3581255E-3],"split_indices":[10,6,5,5,6,0,0,9,0,0,0,9,0,0,0,0,0,9,0,0,0,9,9,0,0,0,0,0,0,0,0,0,0,0,0,0,0],"split_type":[0,0,0,0,0,0,0,0,0,0,0,0,0,0,0,0,0,0,0,0,0,0,0,0,0,0,0,0,0,0,0,0,0,0,0,0,0],"sum_hessian":[1.9642654E3,1.9279521E3,3.631326E1,1.9029764E3,2.4975632E1,2.3868135E1,1.2445124E1,1.8991567E3,3.8197544E0,2.3659552E1,1.316081E0,8.8342285E0,1.5033906E1,2.6285865E0,9.816537E0,1.891931E3,7.225645E0,1.1963455E1,1.1696096E1,5.8096066E0,3.0246224E0,8.411042E0,6.622864E0,1.2295563E3,6.623748E2,1.1675828E0,6.058062E0,2.1071055E0,9.85635E0,9.156968E0,2.5391276E0,2.2524576E0,3.557149E0,6.84325E0,1.5677927E0,5.5962043E0,1.0266594E0],"tree_param":{"num_deleted":"0","num_feature":"12","num_nodes":"37","size_leaf_vector":"1"}},{"base_weights":[2.5757079E-3,-7.4163736E-3,5.402496E-1,-1.0487374E-2,7.0731705E-1,3.805518E-1,8.0534285E-1,8.1260616E-1,-1.3747316E-2,-8.950225E-3,9.084961E-1,5.472543E-1,2.5601488E-1,2.3731021E-2,9.2802905E-2,2.153377E-2,9.100328E-2,-9.378161E-3,-5.2552015E-1,1.0377218E-1,1.1256556E-2,3.2805327E-1,7.866226E-2,3.210444E-2,5.090136E-1,-1.5497886E-3,3.0179067E-2,-7.036879E-2,2.869804E-2,7.110813E-2,-5.1139185E-4,-1.626945E-2,6.4264625E-2,5.751394E-2,5.0990325E-3],"categories":[],"categories_nodes":[],"categories_segments":[],"categories_sizes":[],"default_left":[0,0,0,0,0,0,0,0,0,0,0,0,0,0,0,0,0,0,0,0,0,0,0,0,0,0,0,0,0,0,0,0,0,0,0],"id":33,"left_children":[1,3,5,7,9,11,13,15,17,-1,19,21,23,-1,-1,-1,-1,25,27,-1,-1,29,-1,31,33,-1,-1,-1,-1,-1,-1,-1,-1,-1,-1],"loss_changes":[1.0544188E1,4.237246E0,1.2094421E0,5.1624923E0,1.4053001E0,3.6317205E-1,6.554823E-1,2.457118E-1,4.2730727E0,0E0,5.706711E-1,2.3972821E-1,8.7615776E-1,0E0,0E0,0E0,0E0,3.619069E0,2.543798E0,0E0,0E0,8.544937E-1,0E0,1.225525E0,1.9266784E-1,0E0,0E0,0E0,0E0,0E0,0E0,0E0,0E0,0E0,0E0],"parents":[2147483647,0,0,1,1,2,2,3,3,4,4,5,5,6,6,7,7,8,8,10,10,11,11,12,12,17,17,18,18,21,21,23,23,24,24],"right_children":[2,4,6,8,10,12,14,16,18,-1,20,22,24,-1,-1,-1,-1,26,28,-1,-1,30,-1,32,34,-1,-1,-1,-1,-1,-1,-1,-1,-1,-1],"split_conditions":[1E0,1E0,1E0,1E0,5.5E1,5.1E1,4.7E1,1.2E1,2E0,-8.950225E-3,1.04E2,3E0,8.9E1,2.3731021E-2,9.2802905E-2,2.153377E-2,9.100328E-2,7E0,1.88E2,1.0377218E-1,1.1256556E-2,3.1E1,7.866226E-2,6E0,1.1E1,-1.5497886E-3,3.0179067E-2,-7.036879E-2,2.869804E-2,7.110813E-2,-5.1139185E-4,-1.626945E-2,6.4264625E-2,5.751394E-2,5.0990325E-3],"split_indices":[10,4,5,9,0,0,0,0,6,0,0,9,0,0,0,0,0,9,0,0,0,0,0,9,9,0,0,0,0,0,0,0,0,0,0],"split_type":[0,0,0,0,0,0,0,0,0,0,0,0,0,0,0,0,0,0,0,0,0,0,0,0,0,0,0,0,0,0,0,0,0,0,0],"sum_hessian":[1.9608833E3,1.9260756E3,3.4807804E1,1.9188163E3,7.2592645E0,2.3241919E1,1.1565885E1,6.5902586E0,1.9122261E3,1.5752416E0,5.684023E0,8.487033E0,1.4754886E1,2.5755353E0,8.99035E0,1.3744605E0,5.215798E0,1.8970487E3,1.5177336E1,4.6287274E0,1.0552955E0,5.6675134E0,2.8195198E0,8.425232E0,6.329654E0,1.8613911E3,3.565759E1,1.25575905E1,2.619746E0,2.1088037E0,3.5587094E0,6.943401E0,1.481831E0,5.307675E0,1.0219792E0],"tree_param":{"num_deleted":"0","num_feature":"12","num_nodes":"35","size_leaf_vector":"1"}},{"base_weights":[2.6513627E-3,-6.5758172E-3,5.1835954E-1,-9.402539E-3,6.669862E-1,3.628201E-1,7.871762E-1,7.917362E-1,-1.2405736E-2,1.3297207E-2,9.205435E-1,7.1144365E-2,2.9521957E-1,2.2345704E-1,9.171497E-2,2.050626E-2,8.925193E-2,-7.3893904E-3,-4.0283698E-1,1.4117491E-2,-1.2769668E-2,1.077404E-1,1.07254125E-2,-1.572677E-2,3.5602534E-1,2.602953E-2,7.123928E-3,-1.0057174E-3,6.0536683E-2,-5.1023867E-2,3.159296E-2,6.5035336E-2,2.4209486E-2],"categories":[],"categories_nodes":[],"categories_segments":[],"categories_sizes":[],"default_left":[0,0,0,0,0,0,0,0,0,0,0,0,0,0,0,0,0,0,0,0,0,0,0,0,0,0,0,0,0,0,0,0,0],"id":34,"left_children":[1,3,5,7,9,11,13,15,17,19,21,-1,23,25,-1,-1,-1,27,29,-1,-1,-1,-1,-1,31,-1,-1,-1,-1,-1,-1,-1,-1],"loss_changes":[9.320252E0,3.670457E0,1.1539049E0,4.623138E0,1.3231268E0,3.4766817E-1,6.569934E-1,2.4129581E-1,3.7403042E0,7.691932E-2,6.231308E-1,0E0,6.483699E-1,1.2302399E-3,0E0,0E0,0E0,3.0924644E0,2.031377E0,0E0,0E0,0E0,0E0,0E0,4.892714E-1,0E0,0E0,0E0,0E0,0E0,0E0,0E0,0E0],"parents":[2147483647,0,0,1,1,2,2,3,3,4,4,5,5,6,6,7,7,8,8,9,9,10,10,12,12,13,13,17,17,18,18,24,24],"right_children":[2,4,6,8,10,12,14,16,18,20,22,-1,24,26,-1,-1,-1,28,30,-1,-1,-1,-1,-1,32,-1,-1,-1,-1,-1,-1,-1,-1],"split_conditions":[1E0,1E0,1E0,1E0,6.2E1,3.1E1,4.7E1,1.2E1,1E0,4.6E1,1.04E2,7.1144365E-2,3.8E1,4.2E1,9.171497E-2,2.050626E-2,8.925193E-2,9E0,2.1E2,1.4117491E-2,-1.2769668E-2,1.077404E-1,1.07254125E-2,-1.572677E-2,5.1E1,2.602953E-2,7.123928E-3,-1.0057174E-3,6.0536683E-2,-5.1023867E-2,3.159296E-2,6.5035336E-2,2.4209486E-2],"split_indices":[10,4,5,9,0,0,0,0,6,0,0,0,0,0,0,0,0,9,0,0,0,0,0,0,0,0,0,0,0,0,0,0,0],"split_type":[0,0,0,0,0,0,0,0,0,0,0,0,0,0,0,0,0,0,0,0,0,0,0,0,0,0,0,0,0,0,0,0,0],"sum_hessian":[1.9569241E3,1.9234956E3,3.3428417E1,1.916439E3,7.0566316E0,2.266434E1,1.0764077E1,6.1764126E0,1.9102626E3,2.2663248E0,4.790307E0,2.134133E0,2.0530207E1,2.5262992E0,8.237778E0,1.3503742E0,4.8260384E0,1.8870365E3,2.3226131E1,1.1877674E0,1.0785574E0,3.743536E0,1.0467709E0,2.2441227E0,1.8286083E1,1.4623712E0,1.063928E0,1.8798357E3,7.2007384E0,2.0459145E1,2.7669873E0,3.7890682E0,1.4497015E1],"tree_param":{"num_deleted":"0","num_feature":"12","num_nodes":"33","size_leaf_vector":"1"}},{"base_weights":[2.6948946E-3,-5.7811104E-3,4.9476096E-1,-7.867434E-3,8.542112E-2,3.4200567E-1,7.68976E-1,2.5338124E-2,-6.750314E-2,6.1927058E-2,2.579675E-1,2.12813E-1,9.060242E-2,4.112863E-2,-2.1988514E-1,-1.3147599E-1,1.7833886E-1,-3.7624802E-2,3.1553787E-1,2.4798641E-2,6.779067E-3,1.1889242E-2,-3.0345984E-3,-7.4570395E-2,2.4798337E-2,-2.6958926E-2,1.3984008E-3,-1.8379634E-2,5.5095624E-2,2.1298775E-2,5.943474E-2],"categories":[],"categories_nodes":[],"categories_segments":[],"categories_sizes":[],"default_left":[0,0,0,0,0,0,0,0,0,0,0,0,0,0,0,0,0,0,0,0,0,0,0,0,0,0,0,0,0,0,0],"id":35,"left_children":[1,3,5,7,-1,9,11,13,15,-1,17,19,-1,21,23,25,27,-1,29,-1,-1,-1,-1,-1,-1,-1,-1,-1,-1,-1,-1],"loss_changes":[8.153616E0,3.455502E0,1.1236753E0,3.8007922E0,0E0,3.7760735E-1,6.488652E-1,4.7836843E0,1.0819269E1,0E0,8.2747936E-1,9.917021E-4,0E0,6.447172E0,1.8575357E1,1.0958344E1,1.928484E1,0E0,3.9779067E-1,0E0,0E0,0E0,0E0,0E0,0E0,0E0,0E0,0E0,0E0,0E0,0E0],"parents":[2147483647,0,0,1,1,2,2,3,3,5,5,6,6,7,7,8,8,10,10,11,11,13,13,14,14,15,15,16,16,18,18],"right_children":[2,4,6,8,-1,10,12,14,16,-1,18,20,-1,22,24,26,28,-1,30,-1,-1,-1,-1,-1,-1,-1,-1,-1,-1,-1,-1],"split_conditions":[1E0,2E0,1E0,4.6E1,8.542112E-2,3.7E1,4.7E1,1E0,1E0,6.1927058E-2,4E1,4.2E1,9.060242E-2,2E0,3.2E1,4E0,7.8E1,-3.7624802E-2,6E0,2.4798641E-2,6.779067E-3,1.1889242E-2,-3.0345984E-3,-7.4570395E-2,2.4798337E-2,-2.6958926E-2,1.3984008E-3,-1.8379634E-2,5.5095624E-2,2.1298775E-2,5.943474E-2],"split_indices":[10,5,5,0,0,0,0,5,5,0,0,0,0,9,0,9,0,0,9,0,0,0,0,0,0,0,0,0,0,0,0],"split_type":[0,0,0,0,0,0,0,0,0,0,0,0,0,0,0,0,0,0,0,0,0,0,0,0,0,0,0,0,0,0,0],"sum_hessian":[1.9532642E3,1.9211598E3,3.2104378E1,1.9174988E3,3.6609604E0,2.2061777E1,1.0042601E1,1.2320565E3,6.8544226E2,3.6501203E0,1.8411655E1,2.4901245E0,7.5524764E0,1.158303E3,7.3753586E1,5.4427625E2,1.4116602E2,1.0715575E0,1.73401E1,1.4326619E0,1.0574626E0,5.544273E2,6.038757E2,3.4446594E1,3.930699E1,2.7875085E2,2.655254E2,7.184695E1,6.931907E1,1.3966822E1,3.373277E0],"tree_param":{"num_deleted":"0","num_feature":"12","num_nodes":"31","size_leaf_vector":"1"}},{"base_weights":[2.5113253E-3,-5.2778604E-3,4.7113347E-1,-6.0787763E-2,-2.4371282E-3,3.211164E-1,7.5047845E-1,7.646366E-1,-5.105894E-3,5.9699368E-2,2.3962389E-1,2.026602E-1,8.946185E-2,8.7350294E-2,7.901992E-3,-8.05977E-3,7.4088234E-1,-3.5127487E-2,2.9557663E-1,2.3623368E-2,6.450835E-3,-4.1876207E-4,-4.933555E-2,3.1169923E-3,1.11294106E-1,1.9654963E-2,5.721171E-2],"categories":[],"categories_nodes":[],"categories_segments":[],"categories_sizes":[],"default_left":[0,0,0,0,0,0,0,0,0,0,0,0,0,0,0,0,0,0,0,0,0,0,0,0,0,0,0],"id":36,"left_children":[1,3,5,-1,7,9,11,13,15,-1,17,19,-1,-1,-1,21,23,-1,25,-1,-1,-1,-1,-1,-1,-1,-1],"loss_changes":[7.1135635E0,3.2805638E0,1.0942602E0,0E0,3.9124823E0,3.6229205E-1,6.3870287E-1,4.255669E-1,4.2007957E0,0E0,7.327639E-1,7.9116225E-4,0E0,0E0,0E0,3.562924E0,1.9507155E0,0E0,3.7829626E-1,0E0,0E0,0E0,0E0,0E0,0E0,0E0,0E0],"parents":[2147483647,0,0,1,1,2,2,4,4,5,5,6,6,7,7,8,8,10,10,11,11,15,15,16,16,18,18],"right_children":[2,4,6,-1,8,10,12,14,16,-1,18,20,-1,-1,-1,22,24,-1,26,-1,-1,-1,-1,-1,-1,-1,-1],"split_conditions":[1E0,1.1E1,1E0,-6.0787763E-2,1E0,3.7E1,4.7E1,2.8E1,1E0,5.9699368E-2,4E1,4.2E1,8.946185E-2,8.7350294E-2,7.901992E-3,2E0,1E0,-3.5127487E-2,6E0,2.3623368E-2,6.450835E-3,-4.1876207E-4,-4.933555E-2,3.1169923E-3,1.11294106E-1,1.9654963E-2,5.721171E-2],"split_indices":[10,0,5,0,9,0,0,0,4,0,0,0,0,0,0,6,5,0,9,0,0,0,0,0,0,0,0],"split_type":[0,0,0,0,0,0,0,0,0,0,0,0,0,0,0,0,0,0,0,0,0,0,0,0,0,0,0],"sum_hessian":[1.9471415E3,1.9162789E3,3.0862621E1,7.991865E0,1.908287E3,2.1477863E1,9.384759E0,5.6263022E0,1.9026608E3,3.4551983E0,1.8022665E1,2.4561007E0,6.928658E0,4.6188526E0,1.0074493E0,1.8961418E3,6.518922E0,1.1024101E0,1.6920254E1,1.4047612E0,1.0513394E0,1.882133E3,1.4008812E1,2.6148322E0,3.9040895E0,1.3718507E1,3.2017474E0],"tree_param":{"num_deleted":"0","num_feature":"12","num_nodes":"27","size_leaf_vector":"1"}},{"base_weights":[2.4535384E-3,-4.696411E-3,4.4811535E-1,-1.0260189E-2,2.7580965E-1,3.0123726E-1,7.317081E-1,2.3273049E-2,-7.408033E-2,3.398593E-1,-2.5044212E-1,4.7607377E-1,1.7881776E-1,1.9297828E-1,8.829049E-2,3.7315004E-2,-1.9606121E-1,-1.4821205E-1,1.9410878E-1,-7.276867E-2,4.3253562E-1,-8.758606E-1,6.904882E-2,2.4326783E-1,7.469716E-2,-3.463732E-2,4.4025669E-1,2.2501534E-2,6.138458E-3,1.0724E-2,-2.7342564E-3,-7.105481E-2,2.2436915E-2,-7.928464E-3,-3.7652235E-2,-9.45697E-3,5.756063E-2,5.6112375E-2,-8.516513E-2,1.4323176E-1,3.0583754E-2,-2.3898005E-2,-1.12587504E-1,6.464464E-2,-5.7691596E-3,-2.117632E-2,5.878761E-2,6.510192E-2,2.4122559E-2],"categories":[],"categories_nodes":[],"categories_segments":[],"categories_sizes":[],"default_left":[0,0,0,0,0,0,0,0,0,0,0,0,0,0,0,0,0,0,0,0,0,0,0,0,0,0,0,0,0,0,0,0,0,0,0,0,0,0,0,0,0,0,0,0,0,0,0,0,0],"id":37,"left_children":[1,3,5,7,9,11,13,15,17,19,21,23,25,27,-1,29,31,33,35,37,39,41,-1,43,-1,45,47,-1,-1,-1,-1,-1,-1,-1,-1,-1,-1,-1,-1,-1,-1,-1,-1,-1,-1,-1,-1,-1,-1],"loss_changes":[6.2011423E0,2.9926152E0,1.0595531E0,4.023838E0,1.3421688E0,3.8454378E-1,6.266513E-1,3.8042228E0,1.2903883E1,1.3191247E0,3.3248832E0,3.5029328E-1,8.2489043E-1,6.2306225E-4,0E0,5.245118E0,1.6238846E1,7.9632664E0,1.5546932E1,3.9496202E0,3.0631657E0,2.432611E-1,0E0,7.6773286E-1,0E0,1.1073953E0,1.1956918E-1,0E0,0E0,0E0,0E0,0E0,0E0,0E0,0E0,0E0,0E0,0E0,0E0,0E0,0E0,0E0,0E0,0E0,0E0,0E0,0E0,0E0,0E0],"parents":[2147483647,0,0,1,1,2,2,3,3,4,4,5,5,6,6,7,7,8,8,9,9,10,10,11,11,12,12,13,13,15,15,16,16,17,17,18,18,19,19,20,20,21,21,23,23,25,25,26,26],"right_children":[2,4,6,8,10,12,14,16,18,20,22,24,26,28,-1,30,32,34,36,38,40,42,-1,44,-1,46,48,-1,-1,-1,-1,-1,-1,-1,-1,-1,-1,-1,-1,-1,-1,-1,-1,-1,-1,-1,-1,-1,-1],"split_conditions":[1E0,7E0,1E0,4.6E1,1E0,5.1E1,4.7E1,1E0,1E0,6.6E1,1.21E2,3E0,8.9E1,4.2E1,8.829049E-2,2E0,3.2E1,7.8E1,8.3E1,6.1E1,6.9E1,9.9E1,6.904882E-2,3.1E1,7.469716E-2,6E0,3E0,2.2501534E-2,6.138458E-3,1.0724E-2,-2.7342564E-3,-7.105481E-2,2.2436915E-2,-7.928464E-3,-3.7652235E-2,-9.45697E-3,5.756063E-2,5.6112375E-2,-8.516513E-2,1.4323176E-1,3.0583754E-2,-2.3898005E-2,-1.12587504E-1,6.464464E-2,-5.7691596E-3,-2.117632E-2,5.878761E-2,6.510192E-2,2.4122559E-2],"split_indices":[10,9,5,0,5,0,0,5,5,0,0,9,0,0,0,9,0,0,0,0,0,0,0,0,0,9,9,0,0,0,0,0,0,0,0,0,0,0,0,0,0,0,0,0,0,0,0,0,0],"split_type":[0,0,0,0,0,0,0,0,0,0,0,0,0,0,0,0,0,0,0,0,0,0,0,0,0,0,0,0,0,0,0,0,0,0,0,0,0,0,0,0,0,0,0,0,0,0,0,0,0],"sum_hessian":[1.9444313E3,1.9147024E3,2.9728954E1,1.878408E3,3.6294395E1,2.0943918E1,8.785037E0,1.2318094E3,6.465985E2,3.2672092E1,3.6223044E0,7.435642E0,1.3508276E1,2.4240904E0,6.3609467E0,1.1584729E3,7.3336494E1,5.0692404E2,1.3967447E2,6.0316863E0,2.6640406E1,2.2175174E0,1.4047868E0,5.019746E0,2.4158957E0,7.914167E0,5.5941086E0,1.378551E0,1.0455394E0,5.562493E2,6.022236E2,3.2668957E1,4.0667534E1,3.9040665E2,1.165174E2,7.99378E1,5.9736675E1,3.4794884E0,2.552198E0,1.8372883E0,2.4803118E1,1.1764704E0,1.0410471E0,1.6548643E0,3.3648815E0,6.6747913E0,1.2393757E0,1.6140158E0,3.9800928E0],"tree_param":{"num_deleted":"0","num_feature":"12","num_nodes":"49","size_leaf_vector":"1"}},{"base_weights":[2.373271E-3,-4.2919796E-3,4.2958033E-1,6.8191825E-5,-3.589822E-1,2.884829E-1,7.126977E-1,-5.761692E-2,2.763266E-3,-4.3665487E-1,5.8725722E-2,3.9875758E-1,1.0397232E-1,1.8374759E-1,8.7086275E-2,7.412796E-1,3.0927084E-4,-9.5552936E-2,-7.5227165E-1,6.487397E-2,3.055922E-1,-6.6711605E-2,3.844949E-1,2.1431012E-2,5.8412524E-3,8.529007E-2,9.786578E-3,-2.2862676E-4,6.891445E-2,-7.009337E-2,8.645469E-3,-9.60971E-2,-2.5116313E-2,-2.0476863E-2,4.433829E-2,6.52883E-2,1.9971156E-2],"categories":[],"categories_nodes":[],"categories_segments":[],"categories_sizes":[],"default_left":[0,0,0,0,0,0,0,0,0,0,0,0,0,0,0,0,0,0,0,0,0,0,0,0,0,0,0,0,0,0,0,0,0,0,0,0,0],"id":38,"left_children":[1,3,5,7,9,11,13,-1,15,17,-1,19,21,23,-1,25,27,29,31,-1,33,-1,35,-1,-1,-1,-1,-1,-1,-1,-1,-1,-1,-1,-1,-1,-1],"loss_changes":[5.527243E0,2.9564235E0,9.856224E-1,2.935903E0,1.9626336E0,3.976587E-1,6.1287355E-1,0E0,3.4099019E0,2.2995067E0,0E0,1.0813928E-1,2.295434E0,4.8237294E-4,0E0,3.6405587E-1,3.356409E0,1.353241E0,9.399314E-1,0E0,8.977021E-1,0E0,2.4384499E-1,0E0,0E0,0E0,0E0,0E0,0E0,0E0,0E0,0E0,0E0,0E0,0E0,0E0,0E0],"parents":[2147483647,0,0,1,1,2,2,3,3,4,4,5,5,6,6,8,8,9,9,11,11,12,12,13,13,15,15,16,16,17,17,18,18,20,20,22,22],"right_children":[2,4,6,8,10,12,14,-1,16,18,-1,20,22,24,-1,26,28,30,32,-1,34,-1,36,-1,-1,-1,-1,-1,-1,-1,-1,-1,-1,-1,-1,-1,-1],"split_conditions":[1E0,1E0,1E0,1.1E1,1.7E1,7E1,4.7E1,-5.761692E-2,1E0,7.3E1,5.8725722E-2,3.1E1,7.8E1,4.2E1,8.7086275E-2,2.7E1,1E0,2E0,1.33E2,6.487397E-2,3.8E1,-6.6711605E-2,3E0,2.1431012E-2,5.8412524E-3,8.529007E-2,9.786578E-3,-2.2862676E-4,6.891445E-2,-7.009337E-2,8.645469E-3,-9.60971E-2,-2.5116313E-2,-2.0476863E-2,4.433829E-2,6.52883E-2,1.9971156E-2],"split_indices":[10,6,5,0,6,0,0,0,9,0,0,0,0,0,0,0,4,9,0,0,0,0,9,0,0,0,0,0,0,0,0,0,0,0,0,0,0],"split_type":[0,0,0,0,0,0,0,0,0,0,0,0,0,0,0,0,0,0,0,0,0,0,0,0,0,0,0,0,0,0,0,0,0,0,0,0,0],"sum_hessian":[1.9394784E3,1.9106583E3,2.8819988E1,1.8884437E3,2.2214643E1,2.0581648E1,8.23834E0,7.800602E0,1.8806432E3,2.1027153E1,1.1874906E0,1.2155578E1,8.426069E0,2.3939662E0,5.844374E0,5.2313347E0,1.8754117E3,1.0731676E1,1.0295477E1,1.6812136E0,1.0474364E1,1.8800768E0,6.545993E0,1.3539203E0,1.040046E0,4.1805034E0,1.0508311E0,1.8693647E3,6.0471044E0,1.821618E0,8.910058E0,6.6205087E0,3.6749682E0,2.1234102E0,8.350954E0,1.636226E0,4.9097667E0],"tree_param":{"num_deleted":"0","num_feature":"12","num_nodes":"37","size_leaf_vector":"1"}},{"base_weights":[2.2555809E-3,-3.883333E-3,4.0824082E-1,-1.2244315E-2,1.7494853E-1,2.709896E-1,6.934886E-1,1.2852295E-2,-1.0407489E-1,3.3110845E-1,-7.353745E-2,5.511422E-2,1.9279552E-1,1.7494777E-1,8.5847914E-2,7.199466E-1,9.904749E-3,-2.2240995E-1,2.013587E-1,-1.8726248E-2,7.300834E-1,-3.0637512E-1,5.4781866E-1,2.7325606E-2,4.1044357E-1,2.0409673E-2,5.5583455E-3,1.4565676E-2,8.362415E-2,-3.576375E-2,1.5351138E-3,-3.3199187E-2,-9.83256E-3,-5.400748E-2,4.8380926E-2,2.4893222E-2,-2.1418184E-2,5.2751876E-2,9.069869E-2,-4.7153164E-2,5.918298E-2,2.6126033E-2,6.87164E-2,-8.903165E-3,5.6311514E-2,5.961154E-2,1.3510513E-2],"categories":[],"categories_nodes":[],"categories_segments":[],"categories_sizes":[],"default_left":[0,0,0,0,0,0,0,0,0,0,0,0,0,0,0,0,0,0,0,0,0,0,0,0,0,0,0,0,0,0,0,0,0,0,0,0,0,0,0,0,0,0,0,0,0,0,0],"id":39,"left_children":[1,3,5,7,9,11,13,15,17,19,21,-1,23,25,-1,27,29,31,33,35,37,39,41,43,45,-1,-1,-1,-1,-1,-1,-1,-1,-1,-1,-1,-1,-1,-1,-1,-1,-1,-1,-1,-1,-1,-1],"loss_changes":[4.8318777E0,2.858294E0,9.4268847E-1,4.2091804E0,3.3375773E0,3.568114E-1,5.9755564E-1,2.983318E0,1.4212788E1,7.3574224E0,5.0534744E0,0E0,6.3934666E-1,3.657043E-4,0E0,2.7506566E-1,2.8677948E0,3.815507E0,2.3294537E1,1.5709271E0,4.0329075E-1,4.018239E0,2.0235443E-1,7.566962E-1,3.1466973E-1,0E0,0E0,0E0,0E0,0E0,0E0,0E0,0E0,0E0,0E0,0E0,0E0,0E0,0E0,0E0,0E0,0E0,0E0,0E0,0E0,0E0,0E0],"parents":[2147483647,0,0,1,1,2,2,3,3,4,4,5,5,6,6,7,7,8,8,9,9,10,10,12,12,13,13,15,15,16,16,17,17,18,18,19,19,20,20,21,21,22,22,23,23,24,24],"right_children":[2,4,6,8,10,12,14,16,18,20,22,-1,24,26,-1,28,30,32,34,36,38,40,42,44,46,-1,-1,-1,-1,-1,-1,-1,-1,-1,-1,-1,-1,-1,-1,-1,-1,-1,-1,-1,-1,-1,-1],"split_conditions":[1E0,6E0,1E0,5.6E1,8.4E1,3.7E1,4.7E1,1E0,1E0,6.7E1,1.21E2,5.511422E-2,4E0,4.2E1,8.5847914E-2,1.2E1,1.3E1,4E0,2E0,5.8E1,7.6E1,9E0,1.4E2,1.49E2,7.7E1,2.0409673E-2,5.5583455E-3,1.4565676E-2,8.362415E-2,-3.576375E-2,1.5351138E-3,-3.3199187E-2,-9.83256E-3,-5.400748E-2,4.8380926E-2,2.4893222E-2,-2.1418184E-2,5.2751876E-2,9.069869E-2,-4.7153164E-2,5.918298E-2,2.6126033E-2,6.87164E-2,-8.903165E-3,5.6311514E-2,5.961154E-2,1.3510513E-2],"split_indices":[10,9,5,0,0,0,0,9,5,0,0,0,9,0,0,0,0,9,9,0,0,9,0,0,0,0,0,0,0,0,0,0,0,0,0,0,0,0,0,0,0,0,0,0,0,0,0],"split_type":[0,0,0,0,0,0,0,0,0,0,0,0,0,0,0,0,0,0,0,0,0,0,0,0,0,0,0,0,0,0,0,0,0,0,0,0,0,0,0,0,0,0,0,0,0,0,0],"sum_hessian":[1.9370798E3,1.9092012E3,2.7878647E1,1.8248165E3,8.438469E1,2.0138649E1,7.7399974E0,1.4338234E3,3.9099316E2,5.161498E1,3.2769707E1,3.0746067E0,1.7064043E1,2.3656037E0,5.3743935E0,4.9423304E0,1.428881E3,2.820064E2,1.0898676E2,2.8008898E1,2.3606083E1,2.4206028E1,8.563679E0,1.0333448E1,6.7305946E0,1.3307645E0,1.0348392E0,1.2116094E0,3.7307208E0,1.9920311E1,1.4089607E3,1.4886476E2,1.3314165E2,2.9813675E1,7.917309E1,1.1705581E1,1.6303316E1,1.2861216E1,1.0744866E1,2.0847706E1,3.358322E0,3.7424295E0,4.8212495E0,9.174792E0,1.1586561E0,3.3240356E0,3.4065592E0],"tree_param":{"num_deleted":"0","num_feature":"12","num_nodes":"47","size_leaf_vector":"1"}},{"base_weights":[2.277329E-3,-4.3584712E-4,8.523692E-2,-5.2378313E-3,3.4701815E-1,-2.0531346E-3,-4.232072E-1,2.2399382E-1,5.7256156E-1,-1.9410817E-2,7.247991E-2,-5.56066E-1,5.771171E-2,3.6233282E-1,-3.153282E-1,6.339023E-1,7.996451E-3,-3.961708E-3,4.3202274E-2,1.7935628E-2,-2.9513745E-2,-6.47281E-2,2.0901388E-2,3.4434795E-3,4.3619387E-2,-8.3562694E-2,5.75699E-2,2.9564545E-2,8.019893E-2],"categories":[],"categories_nodes":[],"categories_segments":[],"categories_sizes":[],"default_left":[0,0,0,0,0,0,0,0,0,0,0,0,0,0,0,0,0,0,0,0,0,0,0,0,0,0,0,0,0],"id":40,"left_children":[1,3,-1,5,7,9,11,13,15,17,19,21,-1,23,25,27,-1,-1,-1,-1,-1,-1,-1,-1,-1,-1,-1,-1,-1],"loss_changes":[4.462034E0,3.2207513E0,0E0,2.533502E0,6.019182E-1,2.4472725E0,2.2337115E0,1.507199E0,2.1053076E-1,1.4012096E1,1.409227E1,1.0574813E0,0E0,3.5610747E-1,2.495869E0,1.9178486E-1,0E0,0E0,0E0,0E0,0E0,0E0,0E0,0E0,0E0,0E0,0E0,0E0,0E0],"parents":[2147483647,0,0,1,1,3,3,4,4,5,5,6,6,7,7,8,8,9,9,10,10,11,11,13,13,14,14,15,15],"right_children":[2,4,-1,6,8,10,12,14,16,18,20,22,-1,24,26,28,-1,-1,-1,-1,-1,-1,-1,-1,-1,-1,-1,-1,-1],"split_conditions":[2E0,1E0,8.523692E-2,2E0,8.9E1,4E0,1.7E1,7E1,9E0,8.6E1,8.4E1,6E0,5.771171E-2,2E0,5E0,1.49E2,7.996451E-3,-3.961708E-3,4.3202274E-2,1.7935628E-2,-2.9513745E-2,-6.47281E-2,2.0901388E-2,3.4434795E-3,4.3619387E-2,-8.3562694E-2,5.75699E-2,2.9564545E-2,8.019893E-2],"split_indices":[5,10,0,6,0,9,6,0,9,0,0,9,0,9,9,0,0,0,0,0,0,0,0,0,0,0,0,0,0],"split_type":[0,0,0,0,0,0,0,0,0,0,0,0,0,0,0,0,0,0,0,0,0,0,0,0,0,0,0,0,0],"sum_hessian":[1.9334291E3,1.9282742E3,5.1548448E0,1.9029594E3,2.5314903E1,1.8895668E3,1.3392548E1,1.766987E1,7.6450334E0,1.5332373E3,3.563295E2,1.2214398E1,1.1781499E0,1.4323887E1,3.3459842E0,6.543362E0,1.1016712E0,1.4684226E3,6.4814674E1,2.7646555E2,7.9863945E1,1.1050852E1,1.163546E0,2.9029164E0,1.142097E1,2.1517096E0,1.1942747E0,3.0879931E0,3.455369E0],"tree_param":{"num_deleted":"0","num_feature":"12","num_nodes":"29","size_leaf_vector":"1"}},{"base_weights":[2.1730259E-3,-3.2060384E-4,8.145733E-2,-8.873525E-3,1.7770594E-1,2.404329E-2,-7.6049015E-2,2.9350978E-1,-5.6074867E-3,2.9890807E-2,-3.811855E-1,-1.3580191E-1,1.2596376E-1,-2.6639732E-2,6.4553446E-1,-2.1693414E-1,4.9475074E-1,4.250198E-3,-1.6494071E-2,-7.5716436E-2,2.8212363E-2,-8.06967E-3,-3.2397114E-2,-1.8492604E-2,4.4579398E-2,2.186622E-2,-2.1003345E-2,5.423646E-2,9.392541E-2,-3.8146287E-2,6.0028788E-2,6.171445E-2,-2.3663528E-2],"categories":[],"categories_nodes":[],"categories_segments":[],"categories_sizes":[],"default_left":[0,0,0,0,0,0,0,0,0,0,0,0,0,0,0,0,0,0,0,0,0,0,0,0,0,0,0,0,0,0,0,0,0],"id":41,"left_children":[1,3,-1,5,7,9,11,13,15,17,19,21,23,25,27,29,31,-1,-1,-1,-1,-1,-1,-1,-1,-1,-1,-1,-1,-1,-1,-1,-1],"loss_changes":[3.9150014E0,2.9364846E0,0E0,4.070659E0,1.8783545E0,2.9395218E0,7.324595E0,6.12533E0,3.8301497E0,3.0023165E0,4.615507E0,4.823222E0,1.3874529E1,1.366037E0,2.7402115E-1,3.6506786E0,1.1091816E0,0E0,0E0,0E0,0E0,0E0,0E0,0E0,0E0,0E0,0E0,0E0,0E0,0E0,0E0,0E0,0E0],"parents":[2147483647,0,0,1,1,3,3,4,4,5,5,6,6,7,7,8,8,9,9,10,10,11,11,12,12,13,13,14,14,15,15,16,16],"right_children":[2,4,-1,6,8,10,12,14,16,18,20,22,24,26,28,30,32,-1,-1,-1,-1,-1,-1,-1,-1,-1,-1,-1,-1,-1,-1,-1,-1],"split_conditions":[2E0,6E0,8.145733E-2,4.6E1,8.4E1,5E0,1E0,6.7E1,1.21E2,1E0,4.3E1,7.7E1,7.8E1,5.8E1,8.1E1,9E0,1.88E2,4.250198E-3,-1.6494071E-2,-7.5716436E-2,2.8212363E-2,-8.06967E-3,-3.2397114E-2,-1.8492604E-2,4.4579398E-2,2.186622E-2,-2.1003345E-2,5.423646E-2,9.392541E-2,-3.8146287E-2,6.0028788E-2,6.171445E-2,-2.3663528E-2],"split_indices":[5,9,0,0,0,9,5,0,0,5,0,0,0,0,0,9,0,0,0,0,0,0,0,0,0,0,0,0,0,0,0,0,0],"split_type":[0,0,0,0,0,0,0,0,0,0,0,0,0,0,0,0,0,0,0,0,0,0,0,0,0,0,0,0,0,0,0,0,0],"sum_hessian":[1.9314174E3,1.9265035E3,4.9137197E0,1.839098E3,8.740555E1,1.2347147E3,6.043833E2,5.319791E1,3.4207638E1,1.2180641E3,1.6650627E1,4.666745E2,1.3770882E2,2.8344383E1,2.4853529E1,2.4448315E1,9.759321E0,1.144748E3,7.331609E1,1.0536692E1,6.1139345E0,3.620711E2,1.046034E2,7.0044304E1,6.7664505E1,1.2043307E1,1.6301075E1,2.0499546E1,4.3539834E0,2.0794952E1,3.6533623E0,8.494078E0,1.2652432E0],"tree_param":{"num_deleted":"0","num_feature":"12","num_nodes":"33","size_leaf_vector":"1"}},{"base_weights":[2.0293351E-3,-3.1717077E-3,3.6627164E-1,6.402744E-4,-3.268824E-1,2.4115142E-1,6.4857626E-1,-5.198666E-2,2.9805375E-3,-3.9880478E-1,5.405111E-2,6.142507E-2,1.7962472E-1,1.5199384E-1,8.2916796E-2,7.017561E-1,8.7176944E-4,-6.0885817E-2,-7.2163755E-1,-2.4160964E-2,2.4482083E-1,1.8623583E-2,3.6830052E-3,8.231192E-2,6.994826E-3,-1.4238301E-4,6.297439E-2,-6.683789E-2,1.1011861E-2,-8.6176075E-2,-2.5954514E-3,5.736774E-2,1.2752093E-2],"categories":[],"categories_nodes":[],"categories_segments":[],"categories_sizes":[],"default_left":[0,0,0,0,0,0,0,0,0,0,0,0,0,0,0,0,0,0,0,0,0,0,0,0,0,0,0,0,0,0,0,0,0],"id":42,"left_children":[1,3,5,7,9,11,13,-1,15,17,-1,-1,19,21,-1,23,25,27,29,-1,31,-1,-1,-1,-1,-1,-1,-1,-1,-1,-1,-1,-1],"loss_changes":[3.6558375E0,2.3484616E0,8.032012E-1,2.2938635E0,1.5974209E0,3.5833025E-1,5.690901E-1,0E0,2.7614386E0,2.250247E0,0E0,0E0,5.79278E-1,6.1210617E-3,0E0,3.7476182E-1,2.7001746E0,1.2544549E0,1.0170674E0,0E0,5.78665E-1,0E0,0E0,0E0,0E0,0E0,0E0,0E0,0E0,0E0,0E0,0E0,0E0],"parents":[2147483647,0,0,1,1,2,2,3,3,4,4,5,5,6,6,8,8,9,9,12,12,13,13,15,15,16,16,17,17,18,18,20,20],"right_children":[2,4,6,8,10,12,14,-1,16,18,-1,-1,20,22,-1,24,26,28,30,-1,32,-1,-1,-1,-1,-1,-1,-1,-1,-1,-1,-1,-1],"split_conditions":[1E0,1E0,1E0,1.1E1,1.7E1,3.1E1,4.7E1,-5.198666E-2,1E0,7.3E1,5.405111E-2,6.142507E-2,3.8E1,4.2E1,8.2916796E-2,2.7E1,1E0,2E0,2.1E2,-2.4160964E-2,5.1E1,1.8623583E-2,3.6830052E-3,8.231192E-2,6.994826E-3,-1.4238301E-4,6.297439E-2,-6.683789E-2,1.1011861E-2,-8.6176075E-2,-2.5954514E-3,5.736774E-2,1.2752093E-2],"split_indices":[10,6,5,0,6,0,0,0,9,0,0,0,0,0,0,0,4,9,0,0,0,0,0,0,0,0,0,0,0,0,0,0,0],"split_type":[0,0,0,0,0,0,0,0,0,0,0,0,0,0,0,0,0,0,0,0,0,0,0,0,0,0,0,0,0,0,0,0,0],"sum_hessian":[1.9281589E3,1.9019916E3,2.6167387E1,1.880841E3,2.1150558E1,1.941617E1,6.7512164E0,7.428818E0,1.8734122E3,2.0029945E1,1.1206135E0,1.4768764E0,1.7939293E1,2.291581E0,4.4596357E0,4.638346E0,1.8687738E3,1.03670435E1,9.662903E0,2.041728E0,1.5897566E1,1.2906804E0,1.0009005E0,3.6369333E0,1.0014129E0,1.8629711E3,5.8027487E0,1.63833E0,8.728713E0,7.84421E0,1.8186923E0,3.1567526E0,1.2740813E1],"tree_param":{"num_deleted":"0","num_feature":"12","num_nodes":"33","size_leaf_vector":"1"}},{"base_weights":[1.9484858E-3,-2.7628843E-4,7.7062525E-2,-4.378271E-3,3.1031016E-1,3.2819334E-2,-3.7326917E-2,1.9227602E-1,5.3641E-1,5.512195E-2,-4.7419804E-1,-7.1061775E-2,1.242445E-1,3.2619923E-1,-2.9957804E-1,6.0146195E-1,5.203507E-3,2.636122E-3,1.8049449E-2,-6.676077E-2,4.5144808E-2,-1.8609596E-2,-8.234772E-4,-2.4272747E-2,3.135706E-2,1.2233802E-3,4.0002298E-2,-7.4477516E-2,5.47687E-2,2.6472276E-2,7.784507E-2],"categories":[],"categories_nodes":[],"categories_segments":[],"categories_sizes":[],"default_left":[0,0,0,0,0,0,0,0,0,0,0,0,0,0,0,0,0,0,0,0,0,0,0,0,0,0,0,0,0,0,0],"id":43,"left_children":[1,3,-1,5,7,9,11,13,15,17,19,21,23,25,27,29,-1,-1,-1,-1,-1,-1,-1,-1,-1,-1,-1,-1,-1,-1,-1],"loss_changes":[3.2960289E0,2.4508746E0,0E0,2.328158E0,5.660765E-1,1.0116394E1,5.499015E0,1.2856288E0,2.2210431E-1,3.0804558E0,7.0511026E0,6.0254045E0,1.2189259E1,3.3473933E-1,2.060314E0,2.1083212E-1,0E0,0E0,0E0,0E0,0E0,0E0,0E0,0E0,0E0,0E0,0E0,0E0,0E0,0E0,0E0],"parents":[2147483647,0,0,1,1,3,3,4,4,5,5,6,6,7,7,8,8,9,9,10,10,11,11,12,12,13,13,14,14,15,15],"right_children":[2,4,-1,6,8,10,12,14,16,18,20,22,24,26,28,30,-1,-1,-1,-1,-1,-1,-1,-1,-1,-1,-1,-1,-1,-1,-1],"split_conditions":[2E0,1E0,7.7062525E-2,3.5E1,8.9E1,1E0,1E0,7E1,9E0,3.1E1,3.2E1,3E0,2E0,2E0,5E0,1.49E2,5.203507E-3,2.636122E-3,1.8049449E-2,-6.676077E-2,4.5144808E-2,-1.8609596E-2,-8.234772E-4,-2.4272747E-2,3.135706E-2,1.2233802E-3,4.0002298E-2,-7.4477516E-2,5.47687E-2,2.6472276E-2,7.784507E-2],"split_indices":[5,10,0,0,0,5,5,0,9,0,0,9,9,9,9,0,0,0,0,0,0,0,0,0,0,0,0,0,0,0,0],"split_type":[0,0,0,0,0,0,0,0,0,0,0,0,0,0,0,0,0,0,0,0,0,0,0,0,0,0,0,0,0,0,0],"sum_hessian":[1.9262286E3,1.9216665E3,4.5622215E0,1.8975905E3,2.4075985E1,8.913258E2,1.00626465E3,1.7033924E1,7.042061E0,8.54624E2,3.670181E1,8.32918E2,1.7334663E2,1.3653196E1,3.3807282E0,5.995176E0,1.0468851E0,6.9613855E2,1.5848544E2,3.0589115E1,6.1126943E0,2.935237E2,5.393943E2,5.889943E1,1.144472E2,2.8210878E0,1.08321085E1,2.2955122E0,1.0852159E0,2.9252644E0,3.0699115E0],"tree_param":{"num_deleted":"0","num_feature":"12","num_nodes":"31","size_leaf_vector":"1"}},{"base_weights":[1.8053006E-3,-2.4420547E-4,7.345412E-2,-7.953124E-3,1.6015364E-1,1.4434171E-2,-9.7768046E-2,2.6478505E-1,-8.184386E-3,6.802588E-1,1.1976086E-2,-1.9733271E-1,1.4623089E-1,-2.428733E-2,5.796235E-1,-2.0116667E-1,4.4890508E-1,1.2057919E-2,8.047941E-2,-1.2440472E-4,1.388564E-2,-2.1776626E-2,6.3727684E-2,-5.3754967E-2,3.8126983E-2,3.8449846E-3,-6.253674E-2,7.094859E-2,4.070722E-2,-3.5360172E-2,5.533695E-2,5.678999E-2,-2.4799842E-2],"categories":[],"categories_nodes":[],"categories_segments":[],"categories_sizes":[],"default_left":[0,0,0,0,0,0,0,0,0,0,0,0,0,0,0,0,0,0,0,0,0,0,0,0,0,0,0,0,0,0,0,0,0],"id":44,"left_children":[1,3,-1,5,7,9,11,13,15,17,19,21,23,25,27,29,31,-1,-1,-1,-1,-1,-1,-1,-1,-1,-1,-1,-1,-1,-1,-1,-1],"loss_changes":[2.8896804E0,2.375004E0,0E0,3.6863363E0,1.5535724E0,2.3942258E0,8.915233E0,4.960409E0,3.1540284E0,2.7802515E-1,2.4549685E0,4.576398E0,1.7333988E1,1.1287057E0,2.9502964E-1,3.083994E0,1.0215425E0,0E0,0E0,0E0,0E0,0E0,0E0,0E0,0E0,0E0,0E0,0E0,0E0,0E0,0E0,0E0,0E0],"parents":[2147483647,0,0,1,1,3,3,4,4,5,5,6,6,7,7,8,8,9,9,10,10,11,11,12,12,13,13,14,14,15,15,16,16],"right_children":[2,4,-1,6,8,10,12,14,16,18,20,22,24,26,28,30,32,-1,-1,-1,-1,-1,-1,-1,-1,-1,-1,-1,-1,-1,-1,-1,-1],"split_conditions":[2E0,6E0,7.345412E-2,5.8E1,8.4E1,1E0,1E0,6.7E1,1.21E2,1.2E1,4E0,1.69E2,2E0,8E0,7E0,9E0,1.88E2,1.2057919E-2,8.047941E-2,-1.2440472E-4,1.388564E-2,-2.1776626E-2,6.3727684E-2,-5.3754967E-2,3.8126983E-2,3.8449846E-3,-6.253674E-2,7.094859E-2,4.070722E-2,-3.5360172E-2,5.533695E-2,5.678999E-2,-2.4799842E-2],"split_indices":[5,9,0,0,0,9,5,0,0,0,9,0,9,9,9,9,0,0,0,0,0,0,0,0,0,0,0,0,0,0,0,0,0],"split_type":[0,0,0,0,0,0,0,0,0,0,0,0,0,0,0,0,0,0,0,0,0,0,0,0,0,0,0,0,0,0,0,0,0],"sum_hessian":[1.9230938E3,1.9187267E3,4.3671265E0,1.8316459E3,8.708075E1,1.4668562E3,3.6478973E2,5.3348663E1,3.3732086E1,4.3811655E0,1.462475E3,2.5920956E2,1.0558016E2,2.8293516E1,2.5055145E1,2.411196E1,9.620127E0,1.1556666E0,3.2254992E0,1.32537E3,1.3710504E2,2.5373647E2,5.473087E0,2.6678732E1,7.8901436E1,2.6467072E1,1.8264441E0,1.2520477E1,1.2534668E1,2.050151E1,3.6104488E0,8.375191E0,1.244936E0],"tree_param":{"num_deleted":"0","num_feature":"12","num_nodes":"33","size_leaf_vector":"1"}},{"base_weights":[1.7565726E-3,-2.5909368E-3,3.2365596E-1,8.8585116E-4,-3.04457E-1,1.7499413E-1,5.36403E-1,-4.8858404E-2,3.042188E-3,-3.773174E-1,5.4092485E-2,3.114046E-1,-5.0540954E-2,3.2271153E-1,7.6632224E-2,6.6465753E-1,1.2138571E-3,-5.2865833E-2,-6.9859123E-1,2.2451627E-1,6.450821E-2,6.0940098E-2,1.403582E-1,7.906725E-2,7.768278E-3,-7.9460515E-5,5.707034E-2,-6.417956E-2,1.032097E-2,-8.422147E-2,-2.3105997E-3,3.0154381E-2,-2.7083984E-2,-1.8525204E-2,4.2237893E-2],"categories":[],"categories_nodes":[],"categories_segments":[],"categories_sizes":[],"default_left":[0,0,0,0,0,0,0,0,0,0,0,0,0,0,0,0,0,0,0,0,0,0,0,0,0,0,0,0,0,0,0,0,0,0,0],"id":45,"left_children":[1,3,5,7,9,11,13,-1,15,17,-1,19,-1,21,-1,23,25,27,29,31,-1,-1,33,-1,-1,-1,-1,-1,-1,-1,-1,-1,-1,-1,-1],"loss_changes":[2.6900456E0,1.9912045E0,7.162638E-1,1.9819393E0,1.5347319E0,1.694637E0,2.4658251E-1,0E0,2.2602124E0,2.0976403E0,0E0,2.7310967E-1,0E0,2.7714628E-1,0E0,3.1945252E-1,2.133636E0,1.10219E0,9.7082233E-1,5.7659405E-1,0E0,0E0,5.869379E-1,0E0,0E0,0E0,0E0,0E0,0E0,0E0,0E0,0E0,0E0,0E0,0E0],"parents":[2147483647,0,0,1,1,2,2,3,3,4,4,5,5,6,6,8,8,9,9,11,11,13,13,15,15,16,16,17,17,18,18,19,19,22,22],"right_children":[2,4,6,8,10,12,14,-1,16,18,-1,20,-1,22,-1,24,26,28,30,32,-1,-1,34,-1,-1,-1,-1,-1,-1,-1,-1,-1,-1,-1,-1],"split_conditions":[1E0,1E0,7.8E1,1.1E1,1.7E1,7E1,1E0,-4.8858404E-2,1E0,7.3E1,5.4092485E-2,6.2E1,-5.0540954E-2,3E0,7.6632224E-2,2.6E1,1E0,2E0,2.1E2,5.9E1,6.450821E-2,6.0940098E-2,5E0,7.906725E-2,7.768278E-3,-7.9460515E-5,5.707034E-2,-6.417956E-2,1.032097E-2,-8.422147E-2,-2.3105997E-3,3.0154381E-2,-2.7083984E-2,-1.8525204E-2,4.2237893E-2],"split_indices":[10,6,0,0,6,0,5,0,9,0,0,0,0,9,0,0,4,9,0,0,0,0,9,0,0,0,0,0,0,0,0,0,0,0,0],"split_type":[0,0,0,0,0,0,0,0,0,0,0,0,0,0,0,0,0,0,0,0,0,0,0,0,0,0,0,0,0,0,0,0,0,0,0],"sum_hessian":[1.9206025E3,1.8959877E3,2.4614885E1,1.8753848E3,2.060296E1,1.5562665E1,9.052219E0,7.236257E0,1.8681484E3,1.9477903E1,1.1250577E0,1.3415406E1,2.1472585E0,5.937436E0,3.1147833E0,4.149206E0,1.8639993E3,1.0270433E1,9.207469E0,1.1971046E1,1.4443597E0,1.3978758E0,4.5395603E0,3.1301734E0,1.0190327E0,1.8584436E3,5.5557103E0,1.4996446E0,8.770789E0,7.3894715E0,1.8179979E0,1.0698669E1,1.2723773E0,2.266209E0,2.2733514E0],"tree_param":{"num_deleted":"0","num_feature":"12","num_nodes":"35","size_leaf_vector":"1"}},{"base_weights":[1.6844788E-3,-1.5465477E-4,6.9287226E-2,-1.5908604E-2,6.635335E-2,-3.3636067E-2,3.393367E-1,1.5636128E-1,-2.4111906E-1,9.407024E-3,-3.5040683E-1,5.366966E-1,-7.1108654E-2,1.468574E-1,1.3890259E-1,-3.8351712E-1,4.0420994E-1,3.4591724E-4,2.9202882E-2,-7.4743405E-2,-2.6174271E-2,6.4468496E-2,-3.890032E-2,2.1260943E-2,-4.2348374E-2,-1.7680403E-2,2.0460762E-2,-5.8003254E-2,2.5138253E-2,1.1805272E-1,1.0139443E-2],"categories":[],"categories_nodes":[],"categories_segments":[],"categories_sizes":[],"default_left":[0,0,0,0,0,0,0,0,0,0,0,0,0,0,0,0,0,0,0,0,0,0,0,0,0,0,0,0,0,0,0],"id":46,"left_children":[1,3,-1,5,7,9,11,13,15,17,19,21,23,-1,25,27,29,-1,-1,-1,-1,-1,-1,-1,-1,-1,-1,-1,-1,-1,-1],"loss_changes":[2.440734E0,2.0084286E0,0E0,9.771207E0,1.0197168E1,2.0142075E1,6.0123777E0,6.3155556E0,7.830135E0,2.1864624E0,6.0251102E0,5.241046E0,2.5724752E0,0E0,5.8847237E0,8.746857E0,3.5440745E0,0E0,0E0,0E0,0E0,0E0,0E0,0E0,0E0,0E0,0E0,0E0,0E0,0E0,0E0],"parents":[2147483647,0,0,1,1,3,3,4,4,5,5,6,6,7,7,8,8,9,9,10,10,11,11,12,12,14,14,15,15,16,16],"right_children":[2,4,-1,6,8,10,12,14,16,18,20,22,24,-1,26,28,30,-1,-1,-1,-1,-1,-1,-1,-1,-1,-1,-1,-1,-1,-1],"split_conditions":[2E0,4E0,6.9287226E-2,8.6E1,8.4E1,5.5E1,3E0,3E1,1E0,5.3E1,2E0,1E0,1.04E2,1.468574E-1,4.3E1,7E0,9.5E1,3.4591724E-4,2.9202882E-2,-7.4743405E-2,-2.6174271E-2,6.4468496E-2,-3.890032E-2,2.1260943E-2,-4.2348374E-2,-1.7680403E-2,2.0460762E-2,-5.8003254E-2,2.5138253E-2,1.1805272E-1,1.0139443E-2],"split_indices":[5,9,0,0,0,0,9,0,5,0,9,6,0,0,0,9,0,0,0,0,0,0,0,0,0,0,0,0,0,0,0],"split_type":[0,0,0,0,0,0,0,0,0,0,0,0,0,0,0,0,0,0,0,0,0,0,0,0,0,0,0,0,0,0,0],"sum_hessian":[1.9189596E3,1.9148643E3,4.095353E0,1.5487645E3,3.660997E2,1.4760138E3,7.275076E1,2.8357797E2,8.252173E1,1.3002983E3,1.7571538E2,4.892021E1,2.3830551E1,2.6320677E0,2.809459E2,6.793657E1,1.4585157E1,1.2744886E3,2.5809715E1,3.0720907E1,1.4499448E2,4.4081425E1,4.8387866E0,1.3421082E1,1.040947E1,4.8106712E1,2.3283917E2,5.19449E1,1.5991669E1,3.2793927E0,1.1305765E1],"tree_param":{"num_deleted":"0","num_feature":"12","num_nodes":"31","size_leaf_vector":"1"}},{"base_weights":[1.5467351E-3,-2.4620201E-3,3.0530152E-1,-3.6916358E-3,7.775231E-2,1.6217898E-1,5.157352E-1,3.0871617E-2,-3.208835E-2,2.926211E-1,-4.5724254E-2,3.090613E-1,7.48062E-2,5.430733E-2,-5.605157E-1,-6.407394E-2,1.2058368E-1,2.056755E-1,6.328585E-2,5.7900824E-2,1.4400388E-1,2.2809878E-3,2.2874733E-2,-3.657796E-3,-7.80194E-2,-1.4909955E-2,-1.4805077E-3,-1.3621121E-2,2.5497196E-2,2.794458E-2,-2.4813287E-2,-1.4776229E-2,4.0597785E-2],"categories":[],"categories_nodes":[],"categories_segments":[],"categories_sizes":[],"default_left":[0,0,0,0,0,0,0,0,0,0,0,0,0,0,0,0,0,0,0,0,0,0,0,0,0,0,0,0,0,0,0,0,0],"id":47,"left_children":[1,3,5,7,-1,9,11,13,15,17,-1,19,-1,21,23,25,27,29,-1,-1,31,-1,-1,-1,-1,-1,-1,-1,-1,-1,-1,-1,-1],"loss_changes":[2.3357158E0,1.8189579E0,6.6885114E-1,1.8575474E0,0E0,1.4532049E0,2.3241663E-1,1.186191E1,5.0810733E0,2.8690708E-1,0E0,2.2022253E-1,0E0,4.5114045E0,3.726902E0,3.5988095E0,6.2570477E0,4.9486142E-1,0E0,0E0,4.8492476E-1,0E0,0E0,0E0,0E0,0E0,0E0,0E0,0E0,0E0,0E0,0E0,0E0],"parents":[2147483647,0,0,1,1,2,2,3,3,5,5,6,6,7,7,8,8,9,9,11,11,13,13,14,14,15,15,16,16,17,17,20,20],"right_children":[2,4,6,8,-1,10,12,14,16,18,-1,20,-1,22,24,26,28,30,-1,-1,32,-1,-1,-1,-1,-1,-1,-1,-1,-1,-1,-1,-1],"split_conditions":[1E0,1.1E1,7.8E1,3.4E1,7.775231E-2,7E1,1E0,1E0,1E0,6.2E1,-4.5724254E-2,3E0,7.48062E-2,3.1E1,3.1E1,3E0,2E0,5.9E1,6.328585E-2,5.7900824E-2,5E0,2.2809878E-3,2.2874733E-2,-3.657796E-3,-7.80194E-2,-1.4909955E-2,-1.4805077E-3,-1.3621121E-2,2.5497196E-2,2.794458E-2,-2.4813287E-2,-1.4776229E-2,4.0597785E-2],"split_indices":[10,9,0,0,0,0,5,5,5,0,0,9,0,0,0,9,9,0,0,0,9,0,0,0,0,0,0,0,0,0,0,0,0],"split_type":[0,0,0,0,0,0,0,0,0,0,0,0,0,0,0,0,0,0,0,0,0,0,0,0,0,0,0,0,0,0,0,0,0],"sum_hessian":[1.9165537E3,1.8925687E3,2.3984978E1,1.8905836E3,1.9851635E0,1.5329556E1,8.655422E0,8.5266705E2,1.0379166E3,1.3098724E1,2.2308314E0,5.8138275E0,2.8415952E0,8.2103876E2,3.1628254E1,8.58613E2,1.7930359E2,1.1710646E1,1.3880787E0,1.2543883E0,4.559439E0,6.9642145E2,1.2461734E2,9.688197E0,2.1940056E1,3.142576E2,5.443554E2,6.1593857E1,1.1770974E2,1.0403665E1,1.3069812E0,2.3633215E0,2.1961174E0],"tree_param":{"num_deleted":"0","num_feature":"12","num_nodes":"33","size_leaf_vector":"1"}},{"base_weights":[1.4505091E-3,-2.0951321E-4,6.543857E-2,-4.582119E-2,1.7296846E-3,6.4550906E-1,6.4807304E-5,7.735347E-2,7.495377E-3,-3.1928194E-3,3.4141397E-1,-7.221973E-7,-5.5964626E-2,6.0186297E-2,1.5055241E-2],"categories":[],"categories_nodes":[],"categories_segments":[],"categories_sizes":[],"default_left":[0,0,0,0,0,0,0,0,0,0,0,0,0,0,0],"id":48,"left_children":[1,3,-1,-1,5,7,9,-1,-1,11,13,-1,-1,-1,-1],"loss_changes":[2.0756385E0,1.6980722E0,0E0,0E0,2.0406394E0,3.0074835E-1,2.1139128E0,0E0,0E0,3.337994E0,8.0270505E-1,0E0,0E0,0E0,0E0],"parents":[2147483647,0,0,1,1,4,4,5,5,6,6,9,9,10,10],"right_children":[2,4,-1,-1,6,8,10,-1,-1,12,14,-1,-1,-1,-1],"split_conditions":[2E0,1.1E1,6.543857E-2,-4.582119E-2,1E0,2.6E1,1.69E2,7.735347E-2,7.495377E-3,2E0,2E0,-7.221973E-7,-5.5964626E-2,6.0186297E-2,1.5055241E-2],"split_indices":[5,0,0,0,9,0,0,0,0,6,9,0,0,0,0],"split_type":[0,0,0,0,0,0,0,0,0,0,0,0,0,0,0],"sum_hessian":[1.9138688E3,1.9100125E3,3.8563359E0,7.060939E0,1.9029515E3,3.9110067E0,1.8990405E3,2.9036956E0,1.0073111E0,1.8820698E3,1.697067E1,1.872351E3,9.718865E0,6.2663007E0,1.07043705E1],"tree_param":{"num_deleted":"0","num_feature":"12","num_nodes":"15","size_leaf_vector":"1"}},{"base_weights":[1.3726659E-3,-2.3008958E-3,2.8626004E-1,1.9460171E-2,-4.270874E-2,1.4992991E-1,4.9283743E-1,6.7654755E-3,1.7783363E-1,-1.1995285E-1,5.8185097E-2,2.7445486E-1,-4.146258E-2,2.9291984E-1,7.2797105E-2,2.0547032E-2,-2.4920648E-1,1.0601269E0,3.512507E-2,-2.1520253E-1,2.9257122E-1,1.7263295E-1,-2.4648686E-1,1.399174E-1,4.7806036E-1,4.705723E-1,7.313061E-2,2.6755477E-3,-5.359475E-2,-4.6629753E-2,5.4517515E-2,1.2731867E-1,6.7896314E-2,-1.7281504E-2,1.4956455E-2,-9.334556E-3,-3.4060888E-2,4.6275668E-2,-8.276788E-3,-2.1907217E-3,2.1916276E-2,-3.8086485E-2,3.374426E-2,2.6187805E-2,-4.60301E-2,6.4396426E-2,2.3869183E-2,1.2498987E-2,5.9471346E-2,-3.9731402E-2,3.736043E-2],"categories":[],"categories_nodes":[],"categories_segments":[],"categories_sizes":[],"default_left":[0,0,0,0,0,0,0,0,0,0,0,0,0,0,0,0,0,0,0,0,0,0,0,0,0,0,0,0,0,0,0,0,0,0,0,0,0,0,0,0,0,0,0,0,0,0,0,0,0,0,0],"id":49,"left_children":[1,3,5,7,9,11,13,15,17,19,21,23,-1,25,-1,27,29,31,33,35,37,39,41,43,45,47,49,-1,-1,-1,-1,-1,-1,-1,-1,-1,-1,-1,-1,-1,-1,-1,-1,-1,-1,-1,-1,-1,-1,-1,-1],"loss_changes":[2.0034919E0,1.6630713E0,6.124667E-1,2.4704516E0,5.166272E0,1.2469907E0,2.2167659E-1,4.0238004E0,1.1444587E1,1.4808458E1,1.0075459E1,3.1134522E-1,0E0,2.2617173E-1,0E0,3.7522826E0,1.0304143E1,1.6383553E-1,1.9183446E0,4.6360435E0,4.5619926E0,1.9034333E0,6.3260045E0,8.326558E-1,4.802847E-2,7.610619E-2,7.3748606E-1,0E0,0E0,0E0,0E0,0E0,0E0,0E0,0E0,0E0,0E0,0E0,0E0,0E0,0E0,0E0,0E0,0E0,0E0,0E0,0E0,0E0,0E0,0E0,0E0],"parents":[2147483647,0,0,1,1,2,2,3,3,4,4,5,5,6,6,7,7,8,8,9,9,10,